-0.015047728460830776
0.012537155497751263
-0.03380108458177619
-0.015500827605136235
-0.018876780984200977
-0.06756739712227182
-0.04000114031615307
-0.006011695387884536
-0.05332987722847392
-0.02498565814669147
0.013475744249709336
-0.03437349206448694
-0.004881557364583305
0.029285556672498197
-0.015688544022304005
0.0069132726280096415
0.019321444764071397
-0.023807884562005575
-0.013676138845210685
0.011963740922816027
-0.02494518949547325
-0.016923788489017502
0.021419602929013667
-0.014727252961643466
-0.006539617409636263
0.023369986896550093
-0.02012404438282671
-0.012065340469096885
0.013472225258971354
-0.03192362990791175
-0.01302320922956694
0.017682652524318356
-0.030452357387687957
-0.012340661208202857
0.01587427900769302
-0.030037008024475682
-0.018203005056915352
0.01217080065700138
-0.03711179740909897
-0.026264491989086765
-0.001247915820850673
-0.04513704097584804
-0.03141677306424802
-0.0031638345465367676
-0.03558383235265301
-0.014611627258079348
-0.004083967466653465
-0.030252182700027337
-0.007077778848631269
-0.005896035622598688
-0.037619487982689666
-0.005915881493687828
-0.013072579167168622
-0.04587019019736773
-0.02299934436034526
-0.020274417313483107
-0.042677069464115105
-0.03263886024475042
-0.015669363827049632
-0.032832778190416516
-0.0270235564095469
-0.006883141359042332
-0.028351417697673378
-0.017562889816882265
0.008715180313264194
-0.011696186563112162
0.003579127007693651
0.016843718490757446
-0.005581554592085629
0.006646090135316921
0.0193050919769832
-0.008867884687114035
0.005971531680106015
0.026360388963432346
-0.010752159433492111
0.01520530319346362
-0.014991875360633474
-0.046687081772054335
-0.01244571290411424
-0.024689940925474427
-0.056252398132344054
-0.01915482516138441
-0.0227992644055218
-0.05353242917638864
-0.023097339809602505
-0.009296254722626657
-0.042070788275600825
-0.007077885624124576
0.001612482509911866
-0.02862565830532891
0.000776212256480928
-0.015129812616781747
-0.05118481813013503
-0.02997832845816862
-0.03273811671835312
-0.054891162124715655
-0.03457257524429649
-0.03533001384400583
-0.04355180141508073
-0.02464836079081434
-0.027737173193854867
-0.03500411698618438
-0.013666212244565126
-0.013898043571370864
-0.027265737570461412
-0.007803119825461756
-0.016280856023371492
-0.03511074498702578
-0.013748889543201538
-0.042240741899527666
-0.055130175558284956
-0.031136821617164887
-0.05397783093706347
-0.0655851756866446
-0.03969453706070709
-0.02640997190186776
-0.042716241572102194
-0.01742367975882149
-0.003999792480456386
-0.027270455317594297
-0.006111303136664426
-0.010302398214354759
-0.02493712267211072
0.0050452956259132075
0.015704736381929457
-0.002831473509356114
0.025360954344094366
0.030359692879948545
0.010865285975601028
0.04043176051079938
0.038658855533754824
0.018266861451949116
0.054242298185449074
0.03429372501074205
0.015403700003555223
0.04285129158339411
0.040717511851231354
0.01681050051237092
0.03254939764310319
0.04739814971123589
0.02186349792741259
0.031384193055638276
0.04203522129161618
0.014377104876238176
0.03394438834535196
0.02954974486376322
-0.002670459332805252
0.02391518485941766
0.01864198519602358
-0.011678113237739176
0.01178402428787349
0.018354130632834243
-0.012502447294192781
0.0026023804029877925
0.0013283064982023514
-0.031754728288914694
-0.0221373310057214
0.015092766007688187
-0.01673670832138574
-0.012295574302653113
0.028970769527877874
-0.006458041296076694
-0.001121364966394016
0.0525223732971056
0.02210022513889156
0.025424710599485416
0.05047988175299404
0.020035263118102945
0.025526274499196564
0.025411685878368565
-0.004822662604993016
-0.0008357971021076552
0.028057634480969904
-0.007252747366739844
0.0044205520306662095
0.03348281827524175
-0.007950475189016917
0.008244658009619495
0.04228412685420613
0.0038697533292418487
0.024085215785787536
0.05513502417812731
0.017929283288788598
0.042706004958565705
0.059350791579368706
0.01876051650331355
0.05141935462724046
0.053394060019954385
0.01482917611453344
0.03935533254919422
0.03494053068432572
0.0037156602620090624
0.020940600897656085
0.00797823060749067
-0.035924276270244325
-0.01307652556016841
-0.0008070103635309818
-0.04683066814469855
-0.01775998051815412
0.017284794615051297
-0.02531457941950963
0.0061609546996266645
0.027770466528390714
-0.012376856425765142
0.017640450382199746
0.03515475501608855
-0.0016183013797193284
0.018246047120836162
0.0220704380009768
-0.013580235689577757
0.001024507147747797
0.020419232680449994
-0.013918949210293376
-0.0021344517312326746
0.04296407405197078
0.008718300363320644
0.01596517217786914
0.03632838965641985
-0.004163666274089042
0.002800827442108782
0.013073895856003976
-0.035094164215534115
-0.01547412858289875
0.008124664212724718
-0.0364513635889224
-0.01151922847179996
0.01566165303884802
-0.03193056018341247
-0.009335627697162346
0.019286734192095825
-0.02845376350817918
-0.017479972631911086
0.02633348899242309
-0.018312168933538635
0.0017691102757710915
0.010968243900281038
-0.02111601621454109
0.0026944900338622337
0.002791326969105693
-0.027462038064169667
-0.005848958455308817
-0.00038012462204011237
-0.02750446702643298
0.0016949495853656631
-0.008723254442526572
-0.04007909506472957
-0.021085339939962144
-0.015255772349962032
-0.040080285292950525
-0.027230393352370708
-0.0036838034182936413
-0.020943533135518437
-0.0120211855463857
0.0007753646856974842
-0.024167654227525037
-0.010236453779356398
0.004959602638566902
-0.020594836040335466
-0.00043040574585971456
0.021481026427506097
-0.0038905756708768613
0.009960171518037152
0.03331325099438942
0.003696959098218082
0.02137755648672949
0.02777174530763405
0.000874369757947372
0.029749145235206602
0.006768040666401201
-0.019576224021334562
0.01893211902309336
-0.0030275746548537145
-0.031076202420370003
0.009301462228175131
-0.003512948119424542
-0.03564868006093485
-0.0025139376984407475
0.0015815167796589895
-0.031938553019718
-0.0031064652137625915
-0.0004145537403407691
-0.026111405729948592
-0.007491010174928574
0.002111528864711416
-0.02585515122346928
-0.018096829671030386
-0.010119735394509725
-0.023388171391772013
-0.012913888503314548
-0.008607661730739657
-0.014852789596185042
-0.007927990753649907
-0.00833164497585221
-0.021078074079325018
-0.008587855796697881
-0.00222451640358511
-0.01990571529546888
-0.0037744978939031272
-0.001371903231822988
-0.015243657132567557
-0.0010859140510510559
-0.020431839534978197
-0.029899103991039757
-0.01159321912752198
-0.028221360769123488
-0.04241741649737149
-0.023999094987082224
-0.010126677196689962
-0.023782171601354866
-0.0064209434687596285
-0.007437392265341669
-0.02202319030565091
-0.0017821313948534077
-0.014073414897616404
-0.018616672037785317
0.0068638518194082945
0.005921787196581094
-0.002693853202766326
0.019975099529376775
0.017484327856069497
0.0010309532877860199
0.029004619296852174
0.02945028962144284
0.0073781631056718715
0.04262666514753719
0.04370051591322967
0.01720641028189449
0.04467510246476564
0.04385420099171779
0.01534489067255194
0.032502968175071235
0.03834300296540902
0.01921794101223292
0.03022083803984432
0.03058483005249837
0.0040695977992473015
0.02078224554306297
0.014265989331329717
-0.013059475537169648
0.008865877028157892
0.009871221915259552
-0.012645119920133776
0.006622201549300362
0.010133495461628653
-0.014954596652546589
-0.0004908349739104257
-0.008088410670540138
-0.03916452454566818
-0.030528734251048725
0.01581537114854956
-0.013795645107653015
-0.014916065058591527
0.0399060554108033
0.012575227149122202
0.013169057126092757
0.04350902467073225
0.015382389054297839
0.02139319725816919
0.0466856060317146
0.012338647185980529
0.01537537150673353
0.03023891188971732
-0.006465503841085278
-0.005784856809396218
0.030353068898430986
-0.006280276054651823
-0.0024185043191126037
0.04942533769293522
0.0004574125151090144
0.015422749323719483
0.043142631233624544
-0.004665523037049841
0.017379683176240755
0.03907572427867686
-0.002027645635351288
0.0258945303809714
0.04886182041751937
0.009712430332746562
0.043191882728526365
0.044917988738267786
0.009642772545357168
0.03966637995021263
0.02428383764537732
-0.004266874996059932
0.023517619436502556
0.012132832386656738
-0.03350822762542207
-0.015944037736387112
0.009298234116859528
-0.026390157649099577
-0.012775200014828916
0.027780780295621414
-0.010555460773769162
0.007367076997337045
0.04352288453202569
0.00910282648771099
0.03542988420995487
0.050210658819795646
0.01605931029320397
0.03717713226350334
0.03808824205863198
0.004597894319339066
0.027859953571427874
0.03270882467063292
0.005923433316138331
0.01971203237040534
0.04571460850502779
0.019961114838131566
0.02797507564808508
0.04267159153093835
0.010787585173322747
0.017926040451668738
0.0353591151159026
-0.00735030392789633
0.003617418964708963
0.02189147971475644
-0.01900835316268111
-0.007110981409471005
0.015031595475673575
-0.027029640012642384
-0.009379475753277152
0.011594586688298195
-0.027934953770579828
-0.012511021372497606
0.02990835507279271
-0.010433849484219104
0.009339636024957909
0.020279874342424897
-0.010055936647831616
0.005286501905334553
0.007801650361657019
-0.019943947612429864
-0.013212209040400323
0.008467900771009996
-0.021626550779699105
-0.006269257197157891
0.008642280184308163
-0.02184030512648905
-0.00990715087098212
0.01806202237637862
-0.011184502087301719
-0.004882509981090758
0.01533750432716554
-0.0023723590637283677
0.00869240765378502
0.006301489231201459
-0.021566934445326976
-0.0077083912199870114
0.012388306406780448
-0.01544367411889791
-0.0015933409763697244
0.020128487914119593
-0.0010114736831811411
0.012283038471193225
0.03413487516904902
0.012742136168502565
0.02758255530034504
0.03646094303090395
0.01587562634198345
0.04169048065315926
0.015089836297174144
-0.008064363934859063
0.03045977174806704
0.009578721124336376
-0.015666709997533435
0.023152004134590766
0.002835766521786343
-0.023121711679354073
0.004786209191600327
0.008955003435005188
-0.02155014388085002
0.0022135395913376672
0.013027140711750837
-0.008187051939340334
0.003463769717754855
0.02123389382619975
-0.0009931295171914391
0.007611391813285742
0.012936725125566406
0.0012818170911800025
0.0033636364701367842
0.010757526490457286
0.0031512430712763956
-0.0011368731571599084
-0.0047158597664254875
-0.01653610424911505
-0.017737878556328492
-0.005845042548844485
-0.020333287249102026
-0.018287983037858436
0.0042626415918394665
-0.0073894739394716755
0.005275007756613461
-0.006711829481487076
-0.01591906061831353
-0.0008322056155538823
-0.0029983264269469517
-0.015499394412520535
-0.0011722822451615163
0.0046332786518772035
-0.00421417354415771
0.011117956856975822
-0.013294747395430802
-0.019689907397732503
-0.0010985745282122287
-0.0014151160429157826
-0.007274335376894396
0.016741560204153523
0.013511766872103294
0.008039371243185328
0.02304175778349502
0.00046520675154194436
-0.005822732477893284
0.011873773634421084
0.022099166747019106
0.0017083244615789907
0.02723115667996014
0.04351580372121166
0.012152804183398574
0.03320144101718486
0.056021479634112144
0.022438317377049505
0.034428205484232303
0.057069298630837206
0.02939971840364377
0.03474120531856489
0.034128948104504606
0.0034858442013206556
0.013424947454591232
0.010880229842591302
-0.01816891362956087
-0.0002507470938984337
0.008476944278076432
-0.015199386848585288
-0.0015332665504399785
0.005236956989821644
-0.017906277248555143
-0.007302223443233698
0.002173039086668654
-0.026945923093798327
-0.025253433579334145
0.013499919220988818
-0.013818691098919072
-0.021394203852479723
0.04295602648502196
0.020506959069440056
0.007913835026661679
0.04450488111038018
0.014071325440206997
0.011932622445263922
0.03454488730429623
-0.004696997140216092
-0.0008778687857472862
0.0352158482125901
-0.004255994753590155
-0.00620034077179693
0.03630902494507519
-0.005067562221082214
-0.007107441731899045
0.03903344507842414
-0.005107503539107644
0.002841613376187883
0.03628118043219107
-0.0029721008400757946
0.017113656869043693
0.03796584455624175
-0.0029544669868921836
0.03263891000996956
0.03872756273490289
0.0024028807670218306
0.03827668145776711
0.035861691956357515
0.005180762950039879
0.026592482883671876
0.02803867524841374
0.0006401984856009054
0.021953479484223336
0.03578925303183028
-0.013228689094408708
0.003965765406485585
0.0017192081598400842
-0.03583420844149123
-0.02430504176884072
0.009774457747196645
-0.03193943196896055
-0.022684433694341692
0.029359120316298302
-0.006346478482363227
0.013068267808177613
0.0341920550417272
-0.003320373148872527
0.016667568157542
0.040293483115378406
0.001299137031561472
0.018940620799267654
0.037868617560476124
0.010149137668523628
0.022336410510179528
0.047947049141265116
0.02483725944094518
0.030691361817359014
0.05289161133977159
0.022819380981901012
0.02548334169174524
0.03738878363487005
-0.0023217814727479326
0.008983532401994931
0.021201418624384145
-0.023249953442742822
-0.008556600717526692
-0.00026396807993006165
-0.04527482848272382
-0.03125688615384774
-0.003604103169217786
-0.039477327450054556
-0.022885486681325815
0.00561561149216629
-0.0338223365841215
-0.011930710175192724
0.019381293173421337
-0.020311790248510327
-0.0001981522508148325
0.017688477534200085
-0.015346352039692032
-0.008587617599946896
0.013666723325081826
-0.021192488022670288
-0.016090462865142013
0.019358465496331488
-0.013121004320710557
-0.007811126349412037
0.0399672159634495
-0.0013847354211061341
0.004396299960251224
0.019293450893137467
-0.007869381619008657
0.004085855331158815
-0.002828284252206533
-0.030896585740535523
-0.014571430847479841
0.007732105777721296
-0.020772076871594245
-0.004592415662236877
0.015137623363009453
-0.0068018509391607074
0.0106567813163528
0.029734835585730993
0.013144010000774769
0.028234831010212444
0.04677510253742387
0.03282427219533368
0.05614961907873546
0.02040034249922499
0.0043577726515638664
0.03456582164545543
0.017708097773250768
0.0025254204139121277
0.026009801520712177
0.007777373176493286
-0.005254238649754652
0.011528349082488103
0.0020981701205911255
-0.017199201611368356
0.0028773008793993283
0.016222227541078105
-0.0034170172809611754
0.011913241364688775
0.018329345171263885
-0.0016040807355312135
0.00808173969518982
0.020472666244762537
0.0014073393979852846
0.0010632007135793703
0.008588583370588364
-0.005504292157878373
-0.0179257613088916
-0.009961886675533726
-0.024370865220811912
-0.025158397398412875
-0.020021337065593857
-0.03533793501101461
-0.022993186488221753
-0.001997786815310856
-0.014273765145427513
0.00563799739190061
-0.012151486000093274
-0.012218654553623379
0.0022740425883307097
-0.0168764889638945
-0.020420585734011034
-0.0025126653202273944
-0.01115217892906967
-0.015539965240661925
0.0016622041499737951
-0.024173440527430985
-0.031707401372943034
-0.011939645832305553
-0.0008544761908375683
-0.01165666631192925
0.006612870916871318
0.007481143735508928
0.0018012069236682763
0.010994137293357365
-0.00024777872051342864
-0.012311520736930492
0.001798446560856392
0.0030684537449885982
-0.023331515302079615
-0.001074483059408796
0.016717254772151833
-0.015830538093323594
0.007601804896946619
0.024881856730032303
-0.002435009911785807
0.019152941626212287
0.03164983520342835
0.001060488931118656
0.020421774554973484
0.025123409468517207
-0.009566803241156606
0.007940550878126047
0.014761762811038607
-0.022382422927186788
-0.00887565232638186
0.002788957644528971
-0.0306739934391749
-0.016919722499001606
-0.009156362546415718
-0.043226791530674914
-0.03054591530587714
-0.021465979943780713
-0.05661947883947326
-0.05366601399260222
-0.010609443745063422
-0.0369960416827368
-0.03688437667029492
0.025863152810497777
0.0008044014899415549
-0.004547517326154819
0.03909137806928064
0.012063130672484395
0.008476530525941696
0.0345291793033441
-0.003133534800324325
-0.006659151961049852
0.031199798086970727
-0.009521610654404761
-0.022501696276231695
0.020815861048633783
-0.01794953130336938
-0.027991378143482973
0.020393350471154464
-0.021302612652440718
-0.019082551719497874
0.02055810984178419
-0.012319990108267407
-0.0025286432611669484
0.03179639372721046
-0.0013785116766078342
0.025750365513960354
0.02976941332072978
-0.0020423909733841695
0.031334514043047816
0.02422760568724306
-0.004607328745732867
0.015781022906687175
0.0175026077790099
-0.004531134563685253
0.017285063254820314
0.02106369117450803
-0.02637836546728887
-0.006092759729914413
-0.006512586507180636
-0.049693067432595564
-0.02815703351170356
-0.0014333097495815858
-0.04634915359952714
-0.03135650453772097
0.01670313514359921
-0.02346133989448751
-0.002169092604805801
0.018487493760956375
-0.023645335458504342
-0.001358698729473491
0.023797575426911903
-0.013793657144806163
0.0038754287519592555
0.029612404578635888
-0.0016832182564792133
0.012308927281485763
0.04047760386887056
0.014650602299775413
0.031014353792964546
0.05507962196492845
0.021374508048843395
0.03193559047734844
0.035429073191892986
0.0010233326226413203
0.008037576930085865
0.005782649327870749
-0.03199447603423198
-0.01882490711207067
-0.01978859590660595
-0.059919314655692904
-0.04117277408241391
-0.023805995876582508
-0.05821358575265041
-0.04160527597641773
-0.00028115392182688243
-0.03573691925309477
-0.01998769124581541
0.008891962398333574
-0.025400026804132076
-0.010085577904211314
0.006303186699783202
-0.029374436982215226
-0.025765706069394857
0.01848021551997468
-0.016991958221953086
-0.014627033286046701
0.03609361133421825
0.0018376145018043316
0.008517868223282602
0.05209018420824692
0.009822320048306098
0.016642159964059725
0.025365931659928898
-0.00477434117302471
0.007609376834879719
0.0014348813474720896
-0.023065310448396294
-0.010963366145303024
0.00737072032495751
-0.02046454243796904
-0.0065018073796237145
0.01989601654152565
-0.0017531144468145464
0.021130454811236838
0.03990761904116964
0.022807854379818686
0.04286183811853314
0.043063897155536754
0.029436134824504495
0.05146853545595048
0.02592648861456311
0.010427532562205999
0.029433692392575827
0.026022422991324318
0.013435858780598043
0.026066947459061005
0.016042949240933493
0.008679016455703334
0.016983019238112147
0.0046797443058191
-0.013558014112579056
-0.008908585154496005
0.01600358597935209
-0.007632750139344351
0.003044115442040236
0.011219965894525378
-0.012249255425465368
-0.0021131898349696925
0.009741616551118984
-0.008948977814533588
-0.014130387445755037
-0.00248969126116313
-0.01461122160876352
-0.03010560865612294
-0.007137608381309334
-0.019516435529782026
-0.021157893569944207
-0.00728146684020217
-0.024380987444118173
-0.010009311845229582
-0.004425636746141113
-0.013282960701752953
-0.002539560883722092
-0.018956602438233997
-0.017491152107128777
-0.003773670215181407
-0.018774715794230058
-0.01938846689884433
0.00047293430460962447
-0.009358805034474536
-0.010319548474058998
0.004192850393812654
-0.006526271840254857
-0.01918979409894607
-0.0037962616971129923
0.007279902214985153
-0.006903055428533889
0.005751912356075329
0.008683252886666996
0.0005614212705304855
0.010828770688178843
-0.0035688057727902484
-0.018403769896953127
-0.011305474151601998
-0.006265163685735143
-0.03736389749048788
-0.017060856328752424
0.004275197122819945
-0.029444705720931823
-0.005915943527181508
0.01385642500393334
-0.011417027100950139
0.012852985131048789
0.023246223533639688
-0.005129762632981784
0.015818485275324274
0.022925583605444437
-0.014318804230478505
0.00904677896150723
0.006277762403721261
-0.03578464876319483
-0.0116365759974429
-0.0034566389129674496
-0.042325323115697984
-0.024661103464661677
-0.006418332747124016
-0.04665081790774392
-0.03266739455537678
-0.004577112594338734
-0.04536978041012683
-0.031142940049773603
-0.012623716734857755
-0.04261990269233806
-0.028787512803509642
0.007277304527622782
-0.01781679600255951
-0.013074660379970566
0.022696103241929125
-0.0034964401813580574
-0.008740591123614255
0.024842706518533784
-0.006567167009259461
-0.01795623294416158
0.020448784100114605
-0.01611667578981118
-0.032880456256612296
0.03039080648089729
-0.011639006633981876
-0.01695473890033763
0.030485426523135573
-0.012594844050365256
-0.012476401345191415
0.028582936478751403
-0.009039154749350914
0.0002979437617821903
0.03481177852960367
0.0045496269501467766
0.027184110703084546
0.04198935395612064
0.019721313676532917
0.04430693878044857
0.03342450014442636
0.0070975741068007555
0.024584492173255944
0.01832815559705507
-0.006281880812098537
0.016590479924466515
0.008757367465326979
-0.03669697733461136
-0.022973922228369848
0.0035414350769812984
-0.04379863707274202
-0.03172556623441031
0.005467268436119689
-0.044115519266016354
-0.025935666022794988
0.017546039562120096
-0.03285093053177458
-0.007301558028156682
0.013312239585812562
-0.031573813288902526
-0.010313129865973155
0.012124452912815066
-0.026059238661683914
-0.0047374015087551565
0.012793227574981775
-0.019070252218878703
0.002778874213328472
0.02339865388631562
-0.00021169613669579494
0.01906479271325997
0.022501801997210767
-0.002832476776170574
0.017016535982617473
0.004839860707024584
-0.02747659837178671
-0.012357803682489708
0.0010078722911584582
-0.03862546040403838
-0.023640014720646366
-0.014541111417005863
-0.05424843645038992
-0.03547813660160987
-0.016811310426846793
-0.05786457478542821
-0.04165240199960936
-0.005611689294125164
-0.0410368687959053
-0.03271134452931092
-0.0034826650046159303
-0.03564971432203626
-0.026687243945506714
-0.0010280142864055068
-0.03408672395454568
-0.02127877414868361
0.012455618655494374
-0.024468672851223842
-0.014689594211298788
0.03625534603223521
-0.002085550621081554
0.010323237592696455
0.051036423530734225
0.009177382917907645
0.02180975946289813
0.035604517836431725
0.0010393345966719064
0.0043227666582314654
0.016052592022360698
-0.012339519736004386
-0.007266562743634621
0.02069878642444318
-0.011447521885643672
0.0028318660854848533
0.02905685717036244
0.007005764374261144
0.03455179363646078
0.045996424042556876
0.03011400078477363
0.04863358918506426
0.043167898929820474
0.024585960193717938
0.040502408853824313
0.024931132259098675
0.008031434558194907
0.02688619739243337
0.02526438027195887
0.010225826185513062
0.03040636377607987
0.016775007700503268
0.0026430015151836924
0.01899043546888801
0.021697932778088302
0.0004200118589307032
0.007246312129275388
0.009252847683125693
-0.010587126354812074
-0.004790225360636399
-0.00030343909429322245
-0.027822376494186854
-0.01888825602607947
0.008436611950740176
-0.01674748958841674
-0.021490468066221454
0.011047831836035018
-0.0013437617258478262
-0.013405481169479976
0.005234152902911988
-0.009137096039104944
-0.003568210318606849
-0.009321934415085999
-0.026347368529769075
-0.008889752295580292
-0.003060563738579725
-0.005179420520445171
0.008121746856484731
-0.002415793150233267
0.003451493472413954
0.0187597081798605
-0.012235334503262583
-0.004633162580609454
0.01472077907555076
-0.0023380740241635933
-0.00043705444571686395
0.017512515510093148
-0.0021803555726570096
-0.014771394532732688
0.004493525973983041
-0.004799197912085738
-0.011369232592101819
0.005426002400901495
-0.0037447308374174825
-0.007897953570161986
0.002773585736295817
-0.010019109581555002
-0.023736369570501414
-0.013775052413744823
-0.00820832327013006
-0.03648571460322735
-0.021470021195131504
-0.0016228392421019314
-0.032296723749041696
-0.014357286733747062
0.010226452750744465
-0.018182340556045517
0.0025797667900723594
0.01296679644554278
-0.017155081302151678
-0.0025274469212441994
0.004918628743869648
-0.031217509531484534
-0.01312362941607657
-0.008364224910722137
-0.04652685783246038
-0.015756599024395183
-0.004293189454392664
-0.03953497915616317
-0.010373311007063981
-0.001994993694845384
-0.03704056686500358
-0.011306006228035653
-0.0016985682135275543
-0.028664518669017047
-0.0019010935698191458
-0.009219022942988198
-0.03061054867054241
-0.007282156321663604
0.0026701400945126907
-0.016814846811430344
-0.006819771622837327
0.021540362552329485
-0.003931614366398726
0.0010883788392823041
0.031578021726402464
-0.00395755182674612
-0.006929087978489887
0.021647316455344963
-0.018331551526495037
-0.025395827700328968
0.03293531895403793
-0.008881650696085543
-0.013748647593048044
0.0394625918729326
0.001381725090918118
0.004011111594013907
0.043474117346083266
0.00574715417926159
0.02091512579256907
0.03285568921856078
0.007005707591215012
0.03166663264862077
0.03563176148362214
0.01923142323486136
0.04533185736070485
0.02731635801818343
0.0067577810358096495
0.0286994073160291
0.02459586298891663
0.003478381207335774
0.023100840794912474
0.02001541072122387
-0.023641219127276073
-0.008134381559235031
0.011223374210706199
-0.032189836671794196
-0.018596540605854795
0.016933862689566495
-0.03127668929070493
-0.011482928035389622
0.016008862884981927
-0.026480323848046557
-0.0003975530030831537
0.013219701631947823
-0.027200675647378193
0.0050522497360716645
0.010290648361009208
-0.024693075942215623
0.003828830563862258
0.020654745053429725
-0.011215502279355557
0.009444128822818972
0.028788073542927856
0.004328840678483368
0.019706752032296576
0.021163083299847424
0.0010318000952781454
0.02181932910575671
0.01199309036734884
-0.01967356715048692
-0.0039350137605784945
0.012117977295407036
-0.026962385683010414
-0.01024587717187511
-0.008166129985907336
-0.04276049448389587
-0.024408989053055462
-0.00411427422623764
-0.04143431602984032
-0.024624117865030624
-0.004019948949658318
-0.040785023695115795
-0.03068434608131645
-0.0013173797714995754
-0.03755601628027508
-0.024778986491838868
0.007992459933725842
-0.03106443028782923
-0.01614657108469762
0.010348929345484328
-0.030045996905726728
-0.01736674337371095
0.026949268236613727
-0.015538106226343636
-0.0035757348947582823
0.035192783433198316
-0.006584105615236466
0.004146761984316071
0.03630071075907404
-0.010039012812497347
-0.011730166229250875
0.023248809342275835
-0.01721321934474645
-0.021885836482899244
0.02214804836979735
-0.015390781505252324
-0.0016636452630284548
0.021301808962694405
0.0003969358899285669
0.019450015293414263
0.02858256472457489
0.017592355061345294
0.025389124980791423
0.031878841729373594
0.016393954802052167
0.026138118133888787
0.024784994718084867
0.00977500020258197
0.0268526341372265
0.021641477180010412
0.008499579474012956
0.032433649966612875
0.011927029558668032
-0.004485632686741851
0.015266681183679484
0.010572299125590278
-0.011558832484062406
-0.0045071469665227334
-0.008800457454119845
-0.026875766048553178
-0.030447369380420048
-0.009598688422654883
-0.038808448730117434
-0.04422189670462961
0.012594880825749166
-0.01500773790799421
-0.022105285309279292
0.030057603030893845
0.009041015015084683
0.004274993771706935
0.0186371098799361
-0.00552408147081641
0.0031898011850396853
0.009130319853561511
-0.013927911700679512
0.0035797510805068477
0.005488086266531326
0.004330330463451554
0.024017790639512617
-0.000848348668455816
0.007607675139652592
0.02209212798783266
-0.00240795594033483
0.004630349267875508
0.01847870421608669
0.02359290038860146
0.026504510533529087
0.03937755632960153
0.010888164805433176
0.004666162257386416
0.023652028366428043
0.0036750228212220322
0.004764863516246952
0.022101812355052333
-0.0023408504379165565
-5.614360382208767e-05
0.01785140298085257
-0.007334634394648334
-0.015996574419345815
0.004604172361678648
0.008844916208077931
-0.015662010142541885
-0.00011599172965464091
0.018839428317985137
-0.009796884218152183
0.007451376851824348
0.015735242170754466
-0.01323820928258387
0.002259879703239964
0.008295236544705237
-0.021959854251230534
-0.01382651900933942
-0.02306107456502898
-0.05293848551476534
-0.03915189454360092
-0.014857292723736962
-0.047818697294389076
-0.022646987542641484
0.005390327329950583
-0.030965599629947067
-0.0034843220222304247
0.0004386215252571835
-0.039850474761516874
-0.016714724314243486
0.011379762247509688
-0.015736497871697747
0.011518705669045188
0.0034784522189657057
-0.02567856444438697
-0.0018009438013443257
0.007407803657510656
-0.020385460125144375
-0.013201941896912298
0.0206435176203721
-0.002336538958359974
0.001967976165356178
0.037719733542428024
0.0034752288366838896
0.006205289338734247
0.036661584505703976
-0.0057625866659242915
-0.009715669874903592
0.043525371814587384
-0.0021925839248335406
-0.006366138284707363
0.03744925995785355
-0.009481628127956759
0.0009469320372236946
0.036056922005608075
-0.002604157310685701
0.01183897137936886
0.024260016358469493
0.0018526376433462487
0.016302204314903642
0.023244491942675444
0.013042896224185984
0.031237751441150628
0.021757711801782195
0.0037107435797177775
0.023255118522566696
0.02084147708958634
0.00036704002185809927
0.014219851449723531
0.01774722790857524
-0.02181546853817752
0.001468131166042869
0.008502493702667216
-0.028459884596643885
-0.011398961664522644
0.014339707890504599
-0.025815891427612446
-0.010038766332718819
0.023374137235160214
-0.013813517728853983
0.0077450913182401885
0.04010622439766269
0.0003716302916356438
0.028585586527628794
0.026547926111329823
-0.007119254070722261
0.017787356528514413
0.020824385196320475
-0.013448214181277864
0.00705009168449167
0.03757006532454417
0.00618409341606067
0.021129093207418313
0.03774596621599431
0.003721862094984523
0.01520126307366037
0.03213572057548812
-0.004933468583488409
0.0042170255869187654
0.0286021494554629
-0.008588276055910275
0.0035271059851661214
0.006759417074972255
-0.027667133120889746
-0.0042730974700437565
0.006123910330932505
-0.03213563564856485
-0.006763388444162628
0.023470238160516823
-0.01968428201653691
-0.00039958975487270075
0.04491198985004456
0.0006340188626400235
0.01533484619478543
0.05368622214417942
0.007970087351927363
0.02243879833676813
0.035333992317978014
-0.010807361336121028
0.004523483462859313
0.02063773931455528
-0.021892280327248173
-0.009661189546393743
0.03248661908537011
-0.002112931900620754
0.006017769304375738
0.04049144010979036
0.0025628329471494462
0.003123217645493475
0.036124596776434884
-0.008399046685484432
-0.013157529182351375
0.016997198129609085
-0.01927083572055361
-0.00906354978547134
-0.006010873573066149
-0.029113417563092617
-0.0165597064956412
0.012937158022186443
-0.0008648381609562972
0.002658631789145862
0.022218415729596982
0.012208665051939535
0.015849071268659136
0.009505242101615763
-0.0035124455806425335
0.010528002306696864
0.0018824622047586964
-0.011295466015541208
0.008209076529142208
-0.0016998055822636114
-0.01873838473796342
-0.008024642402327418
-0.00027160364610973384
-0.015515349895799812
-0.020803778912376433
-0.005361075964703346
-0.02291568131709737
-0.0325938140231024
0.0015258270662577866
-0.03102424574425494
-0.043641771552013715
0.021714874188538246
-0.009946189689532854
-0.022785912329629843
0.040958088646658716
0.011135370248651475
-0.0042655430364815245
0.026157830278061952
-0.006195979432405477
-0.00946197017138175
0.01834001669849636
-0.013751483501806966
0.000317163435711155
0.011545044653828147
0.0013758327470851641
0.025322444610603023
0.008202886762749004
0.006032730554980769
0.0262592781098692
-0.0017046623856161066
-0.0026273373083714707
0.013545591562195522
0.01645854503727578
0.019718200395985156
0.02808604240859383
0.019748345134326183
0.01708756960093995
0.03348946311934508
0.020148327760033842
0.017110953718926878
0.03595246974102667
0.008576240986252233
0.015625892413129273
0.03613912382620467
0.00137516513549108
-0.0032075204184471642
0.01676235429932157
0.008615920776418177
-0.00645250250779609
0.005324852857991738
0.026798274920764167
0.004628983440876666
0.00989830306626677
0.022492608367183316
-0.0021201193445726323
0.002258130394326895
-0.0006018736540857948
-0.02365821037384893
-0.02015390112712338
-0.025654976441268216
-0.04937904501088831
-0.04210235335003669
-0.014763351158248754
-0.03883926962386159
-0.022082857599666692
-0.005884323465281177
-0.03897685205942896
-0.021334950087444838
-0.01370605788330247
-0.054495985834037225
-0.03743962480291306
0.004185733572149232
-0.026348007066318214
-0.006614259196372758
0.0050970843424389236
-0.025936256603040244
-0.004640475228399612
0.0025027849674757498
-0.03146513754158164
-0.026014235584621733
0.01577548090577126
-0.018906069177554042
-0.02311959288591719
0.028878338739111782
-0.007711023870083063
-0.011750923812815518
0.03965381137875028
-0.005145650109747802
-0.011854778700031593
0.04189762724102898
-0.000748499748282429
-0.006543736150823805
0.026043717956558847
-0.018947772032762284
-0.009992844219501144
0.02099817074534076
-0.014893805091930877
-0.007948000514766206
0.00034574128283617207
-0.020748732786084564
-0.01037952606679312
0.012643850601839214
0.0006877756302309711
0.014429873798119481
0.010257587143200625
-0.003087699391293455
0.012189268407807444
-0.004597860958233037
-0.021551556899085528
-0.007303694346948375
0.015827341490032003
-0.017625995675758382
0.011426810978744532
-0.0052161373140481035
-0.03691538940432544
-0.014810594662140174
0.010232159655039687
-0.0237299166202437
-0.0008218033910042119
0.026300902167732183
-0.010319138386524209
0.02038137376133542
0.039216694448054604
-0.0016048596950872462
0.026761182866323653
0.0406905741446855
-0.0006866375952232271
0.020335290441502625
0.03522390963898809
-0.0036423469794721773
0.011865129259917336
0.033592072177958746
-0.0023725052519853068
0.008917228298509312
0.04516723824666764
0.0030645296901274004
0.004602493206489648
0.052256491357253174
0.009187524247194448
0.0096936042699704
0.05193531480632653
0.010692091063288504
0.01226101595635915
0.02241370334035069
-0.007476717373529812
0.01077825596199597
0.024739582450715992
-0.011763746300813994
0.015287482116074728
0.04548464738214498
0.0022181170229215973
0.024871716410812424
0.07364749085568678
0.026626233480873042
0.0536452033961924
0.07134061300204222
0.0304433417102263
0.04769590144647834
0.05758312933562397
0.014309611504778308
0.0232527847716566
0.04650732223663
0.0075764972823451696
0.00809512282279214
0.041324676552168566
0.012894992758512726
0.020174747545949875
0.04078323933113318
0.014906629931515472
0.02286828357806632
0.02231111789399159
-0.0025195726555055594
0.0004700171266684084
0.015236522722632512
-0.00833879918493407
0.0008578252640053357
-0.00011379103769341406
-0.016441679740172015
-0.004989536456661403
0.00942050074885293
0.002226692437718646
0.005841238046164378
0.010148899885922486
0.00600225701420847
0.0071425446658928944
-0.007537820848664256
-0.017768994114812822
-0.0022727215957998805
-0.006225963567184625
-0.022685753398802886
-0.012216540012798744
0.0011075594094623737
-0.019849675411157234
-0.02168860219544116
0.0023546532597583966
-0.014854027783912331
-0.03276948177967215
0.011416039738308046
-0.005315532067566179
-0.02372546158635112
0.009447797423588662
-0.009764391067932993
-0.02283480991602044
0.0200976545086618
0.0009481226112156459
-0.00979676875994002
0.048287518750645825
0.023054313842160157
0.011109552366530467
0.034352891801474446
0.0075417156550360975
0.013024199752192048
0.00019454420452919168
-0.02975479871166994
-0.012816619384257972
-0.005123909296786727
-0.013272813486681379
0.004788208233433531
-0.006032216289236819
-0.0072241160565344196
0.00966957657882288
-0.009087209001988705
-0.0004439193109482026
0.017622280064889896
-0.00517909937887477
0.004610641927821073
0.01686642941077945
0.00039604438381636
0.008840238486406967
0.027480247468892285
0.007038066858835736
0.013255996453426256
0.030601008073424814
-0.002640627161023199
0.008991905477884487
0.029012057458377656
-0.009452296353928812
-0.0025758312298325256
0.011803435344693159
0.00233221548028007
0.0019826478455996733
0.013122822751837262
0.021719958818517012
0.015092474641896935
0.018345721981591
0.019356852241808123
0.008426477206511416
0.014757058906448267
-0.008046982883815671
-0.01680411184974946
-0.005306454172154485
-0.01035000660326873
-0.02016769367180746
-0.009060779252652317
-0.015290245271656393
-0.03436412951730172
-0.019916457970560002
-0.011241151371532735
-0.03622808879295527
-0.029575577793233686
-0.00279785043786977
-0.034864021152892395
-0.032651074246895846
0.016043112858547225
-0.010696375794995886
-0.001549918093736399
0.009192523617768594
-0.012970183235943625
0.004907759356508396
-0.00309872573397215
-0.02391710841013631
-0.015432498804378246
0.0033808591802097832
-0.02830690659011571
-0.029707559197211186
0.014618348772475727
-0.02033409162374991
-0.022507847085445287
0.029233105545465304
-0.011929340168165563
-0.01790584782010788
0.03404794325754599
0.00019336889672717138
-0.0078018935174769925
0.02329345442660546
-0.011174281682676056
-0.005550009396538843
0.014204812069216612
-0.019550533366569825
-0.00011537944272082846
0.0028212528741013805
-0.026515978523210353
-0.0007583978965812789
0.00221511540461848
-0.01620231760959652
0.011305996050261854
0.008881418466584657
-0.0136562312082165
0.008203376842805114
-0.005412283523014179
-0.027589895112407534
-0.006017097210623969
0.029810582473825398
-0.002387200938723239
0.02966284709595874
-0.0007368983499513348
-0.02794601113444748
-0.0009537829777954943
0.0027259011628322383
-0.02496500305780488
0.004194560378085132
0.005476013979787389
-0.024895197752687358
0.010636041348499051
0.018890252166348376
-0.019821585236908388
0.012635195008471463
0.027649537399454062
-0.014135029866031545
0.018869619334172288
0.0212899788591225
-0.01402126110267764
0.008293923730832937
0.016273623063925848
-0.017977273094720834
-0.010998989699642614
0.03160022228447258
-0.004412035392039024
0.0012457995843475026
0.045341927414346825
0.0031455046312293343
0.0068306250564196805
0.05528968452399459
0.00918093858656325
0.013279110030055764
0.037759272960201214
0.002836850320123842
0.016404220231072037
0.028160246927069178
-0.007187212188905431
0.011302676576283515
0.04413543246686992
-0.0034689138265244237
0.01437860711526862
0.060432975503575244
0.011476859934666439
0.03350930766175714
0.05981595263170693
0.025737438688686273
0.04129410582952512
0.03868313808264687
0.0037364159210991
0.016318263034470173
0.03835811382765022
0.005792270061528516
0.004125162128388986
0.039095730600045654
0.018859754224959474
0.02181993590587307
0.03502920168381038
0.018344810361085078
0.03159689378716124
0.018770343981417355
0.009119951975730033
0.02357713514681059
0.01483996487956789
0.0036502986302862175
0.014720913621007015
0.006050261490296062
-0.0023388820150775334
0.010103095970099065
0.009708431862367362
0.011598958875834436
0.012950576133106805
-0.0008272866781483928
0.00461160779660396
-0.002302855918995554
-0.003991354013757464
-0.003153536036756868
0.0015001457655916342
0.00021018762519800708
-0.0005603992635588859
0.0003094255323118676
0.020370351120502193
0.01165824271275703
-0.005874588857611449
0.025632982977049305
0.009292526655362135
-0.02067853873119481
0.02818228582432113
0.015246893757173545
-0.006149968995125124
0.020386353431126474
0.011482062986866461
-0.0015402645883190501
0.03261624210460531
0.021639963337715954
0.003762262975657648
0.04090151179402558
0.028459882075812577
0.019741207038879088
0.03090575612233915
0.018161228680553462
0.030129925778578363
0.00878133662758778
-0.007400227975195766
0.01436319959083739
-0.014234372546777181
-0.018322305432565845
0.002368009111320924
-0.012347422868489841
-0.009574722040251725
0.00919549281944577
-0.012791223762833592
0.0018915553528970495
0.02036670576954263
-0.0017141750004412669
0.022135609024871578
0.03318235212185775
0.012122492265259882
0.027465505436981955
0.04569311888197081
0.006615209020284161
0.02341719523433623
0.044347087829290636
0.008561474366402767
0.022022097544665782
0.04497565639691499
-0.008784459008938981
0.0010300518670712593
0.02198260881145791
0.004997211983813502
0.007260286153094567
0.02350652183075443
0.03353165323010886
0.027864193865201607
0.039286577986160524
0.029165354845724422
0.03003000735154833
0.044197612093075045
0.012303934286702895
0.010333374662440187
0.023828292965036517
-0.0029405614737254486
-0.00578534980272043
0.005442872724676077
-0.017361677772573813
-0.030476186917249754
-0.022191398491850686
-0.0022880976472325243
-0.029349817012395835
-0.03617392296278404
0.0071246261844088435
-0.022639192610324717
-0.031228622501701594
0.010565978668183406
-0.010739835123908498
-0.011868502209298871
0.0019473014096134651
-0.013263663133050168
-0.012714095543518501
-0.009170135043979528
-0.025282262546344764
-0.02299153929234495
-0.00871349817367002
-0.036133098154863076
-0.04406880161794323
0.00508396301733788
-0.029572746707955302
-0.04219306456322413
0.008372101440443086
-0.027489487948965975
-0.0350862484964216
0.02417229936860448
-0.014259316326349532
-0.013751447723714567
0.020235039341166446
-0.018805640135628004
-0.01010703880427271
0.01149854617922383
-0.031685581932449094
-0.004783112851959389
0.007642366791390947
-0.0324363070827092
-0.00038317771712094564
-0.003430195959130302
-0.027646819927765236
0.0025824812909187537
0.008537168654044068
-0.02283656077666423
0.0012150394240763394
0.00721630170842558
-0.02394904112279648
0.00025411120627959535
0.024783905829899196
-0.007453573935936727
0.02601437221629785
-0.004181335065442776
-0.03638995429672424
-0.0006047874141797331
-0.00556060837012678
-0.035284681875748194
0.006655611570814018
0.008928882839801422
-0.019919533564160426
0.017390574036346935
0.011883626845598846
-0.022457884911316166
0.010299902680962383
0.0009458902258789528
-0.0353809883675367
0.000456139632690842
-0.02347000116661923
-0.0472022160147533
-0.01869277496088216
-0.023387535674376552
-0.04768284393675682
-0.03485197242010144
0.005625915863593266
-0.02521347856791555
-0.017373528434096248
0.023712712703531147
-0.019321288959258713
-0.014049550257056119
0.03339775508848714
-0.018519404873896774
-0.009942103288455406
0.031213775161428335
-0.013030218434063386
-0.0006216216263661666
0.021548127542359817
-0.02317039933712913
-0.0035368151385313023
0.004106942252581948
-0.04215563717054611
-0.02280867266574315
0.015167420787357385
-0.021331913178357826
-0.003491116022710321
0.01683634318900931
-0.004466883409230584
0.009336070902471565
0.010458914750409972
-0.009437091862984652
-0.0007078966680235868
0.019908182414412653
0.0008528402987764178
-0.0025000854103891957
0.026928408778885995
0.017029331585284156
0.02386202643798471
0.03658887246066408
0.02091130008209305
0.03443446701719185
0.028480453821458026
0.017144370035978383
0.03577802425496921
0.00940039178899507
0.0007760264037302867
0.017200118942482443
-0.013552934289508125
-0.016792318939570013
-0.00618621833462349
-0.01264884894208845
-0.008677159461959691
-0.009474302733297387
-0.02238402098145798
-0.019407688163057515
-0.02661568939788112
-0.01713495205099034
-0.021469196525561084
-0.021148179653609066
-0.002732922147909847
0.0011244460073232538
-0.0038886136915480003
0.016220269625215406
0.010366273891021465
-0.011288651234249599
0.025036228846050907
0.013698092748858904
-0.007912207877064899
-0.002174238195338575
-0.009912194812273916
-0.020788764847159184
0.003936999275258949
-0.008968354213827608
-0.02150237026830957
0.022545742185474657
0.002749072348746934
-0.002577476693033996
0.024759911837740314
0.016317612315395094
0.024065860270218318
0.022856178950843867
0.014344346833786098
0.01999414800952649
0.00525674565413144
0.0014339641129143528
0.011740037205473283
-0.008980921333496745
0.0030247082011455382
0.02940989209017717
-0.011866638326950238
0.0026980843995076964
0.0299766111441752
-0.029952278011445174
-0.004492979753936618
0.015704569906795914
-0.011667723490357579
0.01281786355713683
0.03693930889792328
-0.00639889379990237
0.00521517168679341
0.03736890240261977
-0.018016990456283383
-0.005895230717912691
0.023813976686789095
-0.016904191786583637
-0.0023049070381127262
0.022591753434009376
-0.02507935097349981
-0.01384058180078918
0.005634824677791104
-0.011576253228622886
-0.012864678109527234
0.006898977756171535
0.03025414664912707
0.020297268789118677
0.03536585850037642
0.028007449461389063
0.02656277282458891
0.03924318575267908
0.01757179857165776
0.01156376848200028
0.02483642448955061
0.004400753337804559
-0.00365810692591687
0.006556583339167896
-0.008113891490128096
-0.012000933971934252
-0.02039962986943534
-0.0023011069100820555
-0.029063214293612305
-0.04434614049032126
-0.009834424301422024
-0.03809428247625109
-0.048764316740857204
-0.0030142120751524043
-0.024268252111763394
-0.03212177172223851
0.009153076332477429
-0.013768779811240682
-0.020902430741556177
-0.0005777349594560476
-0.018720162706775602
-0.025806023354603753
0.003036353743938249
-0.02404196177919784
-0.03450221880220415
0.02315140373363072
-0.011561098572755247
-0.028122089433255445
0.016573056997021485
-0.01830659532166079
-0.027807523606580002
0.011750856637875265
-0.026851678884861552
-0.024048888102452166
-0.0004401249348470656
-0.042146062856237926
-0.027018758441907858
-0.009860567899812133
-0.054998844491943366
-0.020227458589720745
-0.002545586214789487
-0.046352678006908905
-0.01189064539508254
-0.004425044820369512
-0.03820082818025849
-0.0025232164234426768
0.010391592351517473
-0.02845389693702848
0.0008085755981106129
0.003980528808661448
-0.02918823036855291
-0.0037878575434171923
0.03298761756816693
0.005281771622773792
0.03445371819053972
0.011069018190883899
-0.016295221151695537
0.013527499563065993
0.0017920606171607386
-0.02605183557453511
0.013248652413760694
0.00931891342891032
-0.02444791706409468
0.015499384009596938
0.008057192463980052
-0.03130817926361605
-0.0016309519075175098
-0.004373953082342344
-0.041492410894723754
-0.01404020864330959
-0.0193494852284229
-0.04831909866830766
-0.02557021600805994
-0.025886746343710604
-0.045496909879248905
-0.03393439980340482
0.004305923737142001
-0.021556897971437238
-0.012124250862636403
0.015276148345933266
-0.02543288091171817
-0.019435587727152686
0.020207810764113102
-0.026370278337304414
-0.019187283316791544
0.02024148623301652
-0.019067544209597543
-0.005194626926040348
0.02575613687973985
-0.006930575647644982
0.014578619401194193
0.015016849860297794
-0.02063229663464041
-0.0002133688681618113
0.014261829205855583
-0.014682154136123721
0.009254586621913518
0.0036057109585669695
-0.012506980815926967
0.00928357776747433
-0.009763188325617966
-0.019759792272241217
-0.01917158938769868
0.006282047824258988
-0.0064506623437296145
-0.016950972537498256
0.026103980618702595
0.015296333030301798
0.011169482304982756
0.02768449766978614
0.014885750476291858
0.022825863295134922
0.03511857400155594
0.01896917530518245
0.028576545529954138
0.009992954072636027
-0.0028019031387107518
0.006730682678092546
-0.016757791813838723
-0.02330257458855457
-0.017951435725569787
-0.014441665382106533
-0.013653402018302941
-0.01227538533370254
-0.015149031703514466
-0.012484555267284989
-0.017692196391488144
-0.0016515583971827236
-0.007213570139335583
-0.011068521867703051
0.01346847167084144
0.013678929075826145
0.004512097667103491
0.04013742437505207
0.029256442029261268
0.00656263914422421
0.03423674338000114
0.015515808894035726
-0.007662043903651981
-0.002503074378881728
-0.01599513285223193
-0.027679029049169985
-0.0004625124382646466
-0.017903729925279728
-0.02764187074614452
0.009805213913885589
-0.006135014290795202
-0.003324404149426403
0.019405275940246956
0.017105759743604638
0.03128747703309859
0.02003785285023299
0.015195125601475686
0.025368786198252828
0.010132232306740676
0.01987607819899855
0.028775203348193886
-0.005961183135291403
0.025862575260763954
0.044046323645368604
-0.01950170002315011
0.012849611926534341
0.04016202791750426
-0.031270778442020405
-0.0012931951966882248
0.02088793590648409
-0.030580036747852615
-0.010441641275936516
0.01851421655747686
-0.02111557666041448
-0.016528220398384433
0.02187389817472654
-0.03592558691351797
-0.03330232703056845
-0.001095514792220937
-0.0416309968512036
-0.034376883472441576
-0.00792641876627133
-0.05344296929480486
-0.040688219863899026
-0.023559010546446484
-0.04191124820212747
-0.03478946082252768
-0.024353704489791936
0.001098563968322757
0.005683691670485767
0.01406995768556099
0.011548353106937175
0.016041016362465306
0.02265563771710476
-0.0013175573128021304
-0.0048590613045377375
0.002520774170163078
-0.011780982595910554
-0.026069648563318858
-0.018231211034756088
-0.011646473330171367
-0.024246459405715053
-0.030758618632201907
-0.006733918917104943
-0.032191981355891595
-0.05162267924270686
0.0018144297077804805
-0.030602527377471975
-0.04859557089937421
0.010311761378932697
-0.0155038350982047
-0.03113064434632224
0.016092321371034408
-0.003471816075825202
-0.02266639347485653
0.017274065408453564
-0.000858014840159081
-0.018097340841965133
0.016451090012521073
-0.01533072883864367
-0.029309584140725865
0.026406999108604494
-0.01562466663680153
-0.02792719569748948
0.03340062203054187
-0.01214260316543897
-0.014394096626443077
0.02868845174781851
-0.0186535675987275
-0.012222438896148581
0.010390515316945036
-0.03603408615510836
-0.011394926595697002
-0.0057048745503324744
-0.05136819822128509
-0.007754252497164731
-0.0025151831803798285
-0.04978765793444111
-0.009985473943388142
0.0020795101153901546
-0.03866946678420177
0.0017117375054910902
0.010910059917468183
-0.032624583816992514
0.002142570362692244
0.005289698050176873
-0.03582874673271678
-0.004995123857566241
0.03549433994351186
0.012527882883044348
0.03351431023977153
0.018083728796800574
-0.006611829375025984
0.013676590839712635
0.005209442924180815
-0.020335983486820308
0.010647310068885908
-0.0033141764274827856
-0.02966823894560513
0.007342126709626358
-0.006311077360510856
-0.03629644636707486
-0.0007091984452667857
-0.0004971138650995814
-0.03739824669886575
-0.012620996544572998
0.007903234921841846
-0.030926388016623924
-0.018361954876284593
-0.0018092088727837104
-0.031005524926830015
-0.02238479423188494
0.009192314055020325
-0.01710017962625406
-0.0013335611289906628
-0.003958755890271115
-0.03353432267755649
-0.01663563933852227
-0.006722334159432051
-0.034476873573530215
-0.01453973542443433
0.018879216569170822
-0.008297626398770356
0.012278293239643788
0.029183313062977306
0.005179957351939958
0.019027907115462477
0.022753761289305917
-0.0021271349818137147
0.009735431397119885
0.019761133115814625
-0.0074218041678824915
0.00953537834586414
0.011556557660413592
-0.004052807753446198
0.0047074904309225615
-0.023861120258608603
-0.026180419335552655
-0.02264531906243675
-0.015759815161276416
-0.024792584762967026
-0.03637783770356133
0.008934927863861906
0.007159452361126114
0.0005912369295695171
0.021843554738491065
0.02384076869428972
0.03312621389625912
0.015078849889414396
0.015232620132469106
0.02577215378503878
0.01195686356549732
-0.0009222051402742717
0.011404670004463588
0.002590719626186068
-0.010800546466385187
-0.003622073007058159
0.0027956933424531814
-0.004082593858461744
-0.0057840653868016755
-0.00036370066332379455
-0.009583924455858915
-0.011419817825410015
0.018579254769894353
0.011346038487524227
0.001053727685047034
0.03748280024829302
0.03380170566830954
0.012369611138673376
0.05641288080592982
0.048887895186483524
0.02473422355301706
0.023660648020407862
0.011844475892821745
-0.006430789823589571
-0.012053532974712757
-0.025289502412119573
-0.02943320084919018
-0.0030713642179922823
-0.012659417112283966
-0.009017059091081546
0.0036985166627956792
0.0005185945415151287
0.012012263483753073
0.017530580305133797
0.024427539907932033
0.037147254153960085
0.02439454788214556
0.026169967904969244
0.040301852918554336
0.015072917570081645
0.04104378198821139
0.0523817193991289
0.004597083775503595
0.03941861270727338
0.04907443862782105
-0.010116760468243054
0.01996694589305112
0.03877206313050489
-0.01894723535630775
0.002782183037263427
0.0235883818506433
-0.02472974032569041
-0.004621619129072819
0.017569291888351844
-0.029420048572031808
-0.021781634303888908
0.010960108903049895
-0.03573063379960698
-0.032762989844621504
-1.956978778264964e-05
-0.028872314926589326
-0.024257530571495278
0.00276516833104548
-0.047778090543978996
-0.03734099348008241
-0.023862575600577023
-0.04016101477018699
-0.029863126880212754
-0.026581666767184858
-0.014030736939030607
-0.002931220496553463
0.003621386845050362
-0.009654881039720987
-0.004806785016167218
-0.0047431577586119844
-0.0102316842038393
-0.01696440840927248
-0.012178217133466103
-0.03138090722896004
-0.051739289812508055
-0.04276812751636883
-0.013575866678013663
-0.03866424528702592
-0.04146337487744675
0.0002044313259180621
-0.031340057283612326
-0.05697884083236356
0.00942156860578707
-0.016421324709626203
-0.052731962023794585
0.021544537044669507
-0.0052761618434745226
-0.029722814206014615
0.020558149455843968
-0.006305745025950097
-0.027184715241238413
0.014848289549887131
-0.011544112855206312
-0.027875149342690086
0.010421180147607581
-0.030564094130235416
-0.050795480478318035
0.011703084716966555
-0.03905401888154497
-0.04755282674240845
0.02609257849097087
-0.02647237618014924
-0.022766480289696227
0.046476098309012094
-0.0063833456079274474
-6.501702220090746e-05
0.041637464715749764
-0.007359577173182964
0.013079160287400861
0.0099831108907063
-0.03511584349130657
0.0036881944217454776
-0.013910664139894236
-0.056454810248809634
-0.017016585021724633
-0.003925272868872655
-0.04293126484818449
-0.006734220315734142
0.01695411060264571
-0.0260949895266729
0.002649180932802952
0.002646138333541265
-0.03142142999179509
-0.0013337444065672278
0.028123716479465304
0.009080539245182474
0.025394996964428648
0.01763570661545231
-0.001037637787165679
0.011618022455012315
0.007176222708304665
-0.013913230355523994
0.004086173184851185
0.0002707806691151086
-0.030009247600633587
-0.004115596408041537
-0.0007709016205436477
-0.03457777084388693
-0.006580788278018159
-0.00929697520004301
-0.043185041446522784
-0.02824425655839868
-0.0005099435275971374
-0.0391239944737469
-0.03369503971615068
0.013932381507694028
-0.026402080703416344
-0.02376518743020172
0.035629076112494
-0.006046199085191534
0.0020467251942099694
0.014076975450452162
-0.02493867242261133
-0.009056971031238379
0.018073622810901094
-0.01693072139862522
0.0005349413413722425
0.040332220214854775
0.014837325172413627
0.02528584039764891
0.03777759759287127
0.020920123296837467
0.03444001253067824
0.024095608681201076
0.0088310129736109
0.02154658652303689
0.011458506702827252
-0.006346078700576983
-0.0019869802547940888
-0.007903295469311563
-0.012986051733355534
-0.016465720202617183
-0.03559208547855132
-0.027539394058914257
-0.03379236808844951
-0.02706661651617971
-0.01858809529548811
-0.032638006581264915
-0.01246903612279217
-0.0036214935502060755
-0.01355088500616051
-0.009519041860661447
-0.0006093626690415182
0.003683200829609142
-0.00898598730196943
-0.006654597979926929
-0.00038767001652265657
0.021091686697920095
0.014510670942426914
0.015663925302429875
0.030396947845801724
0.026960737221940985
0.015267554218563002
0.025967750224477962
0.021050036519013514
0.006774011222513843
0.0118167068570085
0.0024236160996240173
-0.00012360557744653714
0.011488238183094433
0.008737498128858509
-0.004500996305979691
0.026961557477412454
0.026371527677898226
0.0006159668306171385
0.034562581430025004
0.04037754578548014
0.017976207805784832
0.006810480768634881
0.014486962795880073
0.008928121275527934
-0.015548521608238998
-0.017423179442859853
-0.008610350929694754
-0.01367457122046049
-0.017742711021793648
-0.00558891823004215
-0.00914814461142247
-0.009768623628516658
-0.002699861701979179
0.029386366049269128
0.026553150563646755
0.03365367771992218
0.0266555303061475
0.026119269766903583
0.03715399934837967
-0.00173585961829959
0.02249734355677837
0.02925045887077058
-0.017596519434122868
0.012129923017651586
0.019643541521215425
-0.020419631242711216
0.008508500400197924
0.014750945687757819
-0.006261718450231058
0.016382499576790957
0.03326929123530998
-0.018557504516499342
0.010344812501482822
0.03467369228117204
-0.0302925429591693
-0.003662450284762913
0.027967866620714422
-0.02851640968758441
-0.0077837928625777
0.020650829385025313
-0.029803387116486463
-0.014906662534585084
0.006008066996655165
-0.03734188574012375
-0.0203520571725851
-0.006483458613369199
-0.04959502322365733
-0.03261844079143423
-0.02214464528394571
-0.03262529043855848
-0.02410552670054863
-0.011560411234988447
-0.017747101983755613
-0.020510336777851516
-0.01265632616581762
-0.013505309168373931
-0.026898330528859864
-0.015493012642706012
-0.03836057914190491
-0.05274216783708725
-0.04366143498761644
-0.028016287362902178
-0.05022909397110004
-0.05417257975629537
-0.017483972562986665
-0.044046191840119105
-0.07287950586091765
0.007144208502121028
-0.002118068877098081
-0.03681400539776453
0.030086303765038996
0.011736887141650379
-0.01683215900165817
0.024850080802433526
0.00333414791587864
-0.010748885565205181
0.021782286544471934
-0.0076183727819488295
-0.01672824178912568
0.013955179567942304
-0.027686217210977082
-0.03899417861535913
0.0158749001907192
-0.02964000134085925
-0.03829996799078532
0.008340150805205124
-0.03697500621162077
-0.03546611444135242
0.036855182126159056
-0.011523112616274343
-0.005410098042298683
0.03983716238076761
-0.014150887577689081
0.009387676562389266
0.009437286436748477
-0.03786420533133594
-0.0024592921720735217
0.001862771037450542
-0.03775901726286809
-0.006850707136022932
0.008627330148606414
-0.03625433065920153
-0.0027753228809075598
0.02035480762064546
-0.020460164904903606
0.005810035663640311
0.00886738475540051
-0.023450251615528432
-0.001570520273590409
0.0199166305650973
0.00355391824558811
0.019205506106866936
0.010467919993719689
-0.010834571296306428
0.005025608596547668
0.015153971954352393
-0.011865773878421642
-0.004263345080497351
0.025247218801781584
-0.008505686877280084
0.002999032734308729
0.016966920783304508
-0.020943383152296595
0.00019380711118170308
0.009078241964762625
-0.02819650375777645
-0.02236831615084269
0.022271930127906164
-0.018893165338623775
-0.019656827337464888
0.04162146207998716
-0.00460505747676432
-0.0008090875117056071
0.05811730074393177
0.01277869856486198
0.023800124412030894
0.022883198110976156
-0.014161375424557365
0.0048999812313586365
0.0267193967119872
-0.013185291505087213
0.00793389366606179
0.04391498865914899
0.01968609998274025
0.031390820728581494
0.04444611441211448
0.03281798762166307
0.04826667148760238
0.031115322401531812
0.02570538071345369
0.0399503864937623
0.012983621474694267
0.0016155454276754503
0.013575572368397211
0.007699361924366999
-0.003616482608424399
0.003991011904384143
-0.011844273909225947
-0.00890130331836511
-0.006991783093908166
-0.004636483959673358
0.0046632281236309095
-0.0035619988529860735
0.0012744866654934225
0.01287385889320377
0.01056389218756228
0.0004145544165520179
-0.0004284618777890727
0.005887785831776876
-0.0008114452909897225
-0.004567742173069913
-0.0014642005663388572
0.033577243505399035
0.02754362886886365
0.02891324814973088
0.04782760333831967
0.0430877571067396
0.0347970014648377
0.02952652370335694
0.023650044719374635
0.01348677148904838
0.008400992694042047
0.0034108061902632706
-0.006784733330340832
0.0008590634023202704
0.009589793260277564
-0.005572610239239969
0.014484813086747837
0.03227835357044567
0.01596699696485471
0.017601362926509802
0.03505125619168463
0.022902947346801122
0.003150986361651037
0.01855813231893422
0.015871382336596292
-0.023705745466511507
-0.026550278021821416
-0.024115385459148136
-0.024407895611274454
-0.030552898619862316
-0.030092817206906607
-0.010798490653534533
-0.020719484413103003
-0.020571468826493647
0.02064493550371469
-0.0008335659141143606
0.006211625468121754
0.0037921253276573634
-0.013418150099207183
-0.00034304470542747623
-0.013164553284833765
-0.002741581681267479
-0.002041709831483721
-0.014718521440438418
4.9434239936092406e-05
-5.1599959574893616e-05
-0.014051915136819786
0.00030394491876227633
-0.0025794256733685707
0.004669607514330647
0.01816180949090038
0.0229980195573486
-0.025285817442447532
0.0071791696211233064
0.024816443406243553
-0.042339214714715565
-0.009148691615869481
0.010869503183466583
-0.024713034692651525
-0.004144029115337332
0.006188258946536733
-0.02938372703730096
-0.01711669775293246
-0.0009730956077463509
-0.04366159466123444
-0.02705894272271755
-0.003456428356703633
-0.03147036957810192
-0.017213649750970776
-0.002473882071283683
-0.017324919280657
-0.013871374291481246
-0.005048033007510002
-0.011002809644849747
-0.011906026242919657
0.00031522591825618624
-0.013795163646461219
-0.02465128636054462
-0.012899140229488066
-0.040919902167277644
-0.04788769246707152
-0.03976327247741919
-0.023755439140723242
-0.04370470022531611
-0.0397900985990247
-0.006803944032692396
-0.027719041770941866
-0.042871995426253647
0.012580749803261335
0.010209227018716457
-0.014387422477728666
0.03596313078926438
0.027646820484777963
-0.0008569195063788664
0.03143937482907811
0.01101918862622605
-0.0032497882590319877
0.026521509787062223
-0.0061500787825930665
-0.009271533666934565
0.01993123749155659
-0.02554063503618721
-0.03212624235150098
0.012702802699928586
-0.03113591045605296
-0.03506482705418306
0.002819376209846996
-0.03634991550383306
-0.0279515779208876
0.012601381260252315
-0.028767444068872532
-0.015500641273339427
0.026397841854736186
-0.021675317968171837
0.0012937749545673333
-0.0012536955889986504
-0.05027099031378562
-0.016272384530203573
0.0005682877754942668
-0.04096412314027584
-0.01032555189891917
0.010916318350951866
-0.0369073901047264
-0.003939600713357948
0.02289469414169996
-0.016553099009874443
0.006708281219756022
0.017246708490599505
-0.016723143324269968
0.0041549228691839446
0.014749638730981162
9.839394584014816e-05
0.021420124850595343
0.01279882435193143
-0.007892368379821805
0.015927978023376626
0.010919232121826945
-0.01779957261917666
-0.004976612495384029
0.02382851305984191
-0.003703668381562583
0.015156774539719408
0.030744726089005702
0.0018035260866772747
0.02972364036773695
0.02585992496646727
-0.006067193067270355
0.006119539702862192
0.022836011512354395
-0.00694865794229482
-0.00015209023185568663
0.013694238753376078
-0.018261108735879637
-0.00721512754891915
0.024955093992287646
-0.005914859363499269
0.015793173410533587
0.006152966394596044
-0.010694236027535445
0.012838582869340096
0.01210754619417518
-0.004934260080532726
0.014705246859839653
0.028689798377721794
0.016874249710268373
0.03080819195032525
0.028841831451371897
0.021594474025916428
0.034581867202378866
0.017120131308331676
0.020384036069368443
0.03373873942371402
0.003015667392489543
0.005874795699699589
0.027403069579228147
0.0008140741345323457
-0.0009736957061450004
0.014578260118326096
-0.015585854711770064
-0.005310844631433544
0.0018294262092645173
-0.0012536106156306299
0.011770640784755882
0.009486338229253094
0.010247025145200376
0.025345552036486113
0.028385016280430945
-0.003919000403838727
0.00014788300371514226
0.007386875430466848
-0.0021528007795274056
-0.00150382284102807
0.002511081577905001
0.024321085683591318
0.022226273871333756
0.03349196039428765
0.03480664406189641
0.03568980441611267
0.0406162154024198
0.01746642476635507
0.020117404086278042
0.018302021887079755
0.007636683674043158
0.010753620616114203
0.0034649511260362387
-0.006125371807168186
0.016207732877039464
0.01143218099113163
-0.013016519919537974
0.014129303795613434
0.015481899215559366
-0.004941766854087905
0.012266385183664207
0.013937006601301613
-0.012478207941338196
0.0012108560264645464
0.0023594322156164356
-0.03697673725391514
-0.03339730751795743
-0.03430858880437096
-0.022489851416042893
-0.027412478965652978
-0.028734109602991838
-0.006202139994309634
-0.02013845730103116
-0.01922282712047949
0.00863976904636529
-0.010839823493379992
0.0020871258838254052
-0.020045320492620398
-0.0310223798987062
-0.008624445917209534
-0.03898742677307942
-0.02323451130893673
-0.004682913149731556
-0.03995585530934441
-0.024872629217531604
-0.010124509231398507
-0.024176168288738243
-0.007941565927906225
-0.0022023129504126324
-0.011116089179348788
0.01384571937798519
0.020921708293557443
-0.026151642254609038
0.016187241498373677
0.029779757786501524
-0.031115383965063647
-0.004871997673500885
0.009931264698962486
-0.013818916889983334
0.005055068391622222
0.013898987803340276
-0.009074726181578409
0.0005479118567456788
0.00939944280130045
-0.01442674610457771
-0.00896224746790697
0.004712543245383411
-0.00689685704008198
0.0014634612336262135
0.0075556893449898865
0.0008140860594620335
0.00932981428738205
0.008977661395547492
-0.006937021304079775
-0.000937850871682091
0.005815523984222778
-0.0032898165891526066
-0.0006664967043107185
0.008159517209185535
-0.0282053202027259
-0.02145316391370807
-0.012139755335967362
-0.002350461785405023
-0.004097873793806724
0.006223501135272116
0.0017999695211090142
-0.0009089143855366161
-0.003996687035956993
0.015077166685150746
0.014219188748268378
-0.00663516843285542
0.03424877415470464
0.029206760648303874
0.005493939928253356
0.03776424378557034
0.019561727371882404
0.010630441776911654
0.028927090252636924
-0.007198573036278132
-5.664348382411442e-05
0.02782213293403885
-0.01914272191498193
-0.013547550405371997
0.0173907571085781
-0.025843420169612243
-0.02006858585585357
0.00923495168159677
-0.02690367030366209
-0.017203724622719147
0.008551995822610365
-0.02354117445573329
-0.004070589493974162
0.014745803266261272
-0.022888654729057316
0.008931701688110262
-0.007958448204988996
-0.04780088129192687
-0.0024040509308072716
0.007351939797164983
-0.030777582650804738
0.006537772170363237
0.021985903259151847
-0.017016275025195576
0.013408062356815548
0.029667843010997463
-0.004897014949505252
0.014188242006015686
0.018177703148826704
-0.01881224689825107
-0.0052535369177020425
0.02548443690909807
0.007348337019618442
0.025361176816436078
0.02473752363023672
0.00459721769263183
0.029782925066805684
0.023699065900157103
-0.008846406712223023
0.0038343288898405746
0.02735454712545511
-7.319857736897032e-06
0.020047985975379153
0.03614836240908268
0.011282594648891022
0.04172899741566344
0.027409981430684894
0.002043230831179516
0.018704420236699323
0.013202533175051531
-0.013013508469363454
-0.0025242024491861806
-0.0040713021580200326
-0.031318914174691966
-0.019077974982174246
-0.0007245737015522351
-0.020315051397464586
-0.0003517451130584817
-0.013343598246338129
-0.021502105412633952
0.0009728043612207547
0.0006709356995168885
-0.00557033686897453
0.014598790338724675
0.011005939953319773
0.008271140614880393
0.02462716809594352
0.006510178519644125
0.00018776790845443183
0.018175168618886944
-0.00605825463821993
-0.0011788253215617255
0.017317826505754697
-0.018647219474962465
-0.014730275575919178
0.006719134504186887
-0.011874272552837958
-0.012422472406589344
-0.002406382515775815
-0.010794035344272297
-0.0009933467228428674
0.005470882994021622
0.0157649240165917
0.024176605873456613
0.02591476854601238
0.024697782894397512
0.03286400784996305
0.03210572297376033
0.011202191980309374
0.01293950083842309
0.009652713745952793
0.006057661934250304
0.008849067627306731
0.006408299308275752
0.021908342216428553
0.031216154858494792
0.04313727499807914
0.027315755109053364
0.03580916192659695
0.04887000434288996
-0.0028482796237723554
0.013156654030402655
0.025237124647442877
0.0007632913908711635
0.014996896419746076
0.02541171297309901
0.008211499341573161
0.03244806323066343
0.034269473301697904
-0.009062674037666123
0.009838124194329875
0.007428287008444625
-0.009713118723665768
0.012274451068814007
-0.0003424395480389201
-0.026705580037916586
-0.006563563681232504
-0.011698709916465464
-0.04623238492799641
-0.04582443314814724
-0.0403530680986638
-0.015074066661511856
-0.022328285457918977
-0.017322334395810927
-0.011888929744421965
-0.030996917857955948
-0.022722083404930076
-0.0015318605923295425
-0.014078237393998213
0.00290921272042931
-0.04251833801447258
-0.0383802451983194
-0.016807906058996364
-0.05804052574197401
-0.04277051460898494
-0.015325932934850354
-0.05740971080846489
-0.03429438417401972
-0.006133239466269679
-0.03597046556092466
-0.008347261333887693
0.004735748042005554
-0.01850546954475568
0.007512481609141307
0.01001747892926664
-0.009991434198052098
0.01773316551231616
0.02413636460563654
-0.01051074883140311
0.0028466522533085546
0.011841894490462525
0.0005781707319863397
0.009875554831516819
0.009476939476237015
0.0037001953053572064
0.005500824172839827
0.0007125428944967452
-8.973803015715427e-05
-6.0242431982534376e-05
-0.0030332348881353414
0.004843169926419149
0.013996785756418677
0.013261079525352774
0.005825437432782786
0.026279677230801466
0.02698755522853841
0.0032317006351959203
0.014194955218181935
0.015157369892119552
0.009026003018713437
0.01994872362902542
0.012904341749374052
-0.006909853202133644
0.00473031868281841
0.002303492107711888
0.00915377672949423
0.0065177356241918364
0.0067680218509473455
0.010597843211545683
-0.002981148111561877
-0.010053224550096228
0.00022145429686197993
-0.010696529486533117
-0.03170052465762359
0.014587026192639229
0.007432276035380508
-0.019558758322140837
0.0403215476178608
0.02437655473976143
0.012655961808285043
0.044779812088041646
0.009693599712911343
0.012475030863922942
0.04640187320064117
0.00029899256262815244
0.0017191307267310876
0.020847688683786777
-0.023120842276872684
-0.013246011116062323
0.0005009566603727456
-0.03268776304567111
-0.018502945133648942
0.003596757836539812
-0.027386238105313578
-0.013394565246981042
0.0018382210097263392
-0.04144740546688059
-0.009641813520474668
-0.004630067584126109
-0.0508587073895375
-0.005634996667541617
0.012942244992468053
-0.02941644176945648
0.011993086687227345
0.025171835208881662
-0.012020225156037359
0.015400597397967885
0.032578891711549915
-0.0008068954571131011
0.012607350623768866
0.01563906615561506
-0.020966149547137745
-0.016464249632256723
0.044012575194980676
0.023431339197757004
0.03368454217943612
0.04753164996526357
0.02330946506826635
0.039557509700660444
0.03937108557986313
0.005694328467385926
0.010941301481842787
0.027746839379905387
-0.0016186733225170068
0.011502756216409752
0.02155826447920539
0.006988697212014844
0.02713548232223467
-0.0022515099866189797
-0.019403292462467137
-0.0022740248879800445
-0.0191928581821233
-0.046783608890524936
-0.03796983008644595
-0.026539394589701622
-0.05981487839523795
-0.04855546623751842
-0.02954066462643475
-0.04954471293571349
-0.022679541932156065
-0.024311329274336057
-0.03737271299976067
-0.0043691667326182715
-0.018380007553726888
-0.035877942504806935
-0.007073598109550197
-0.018779256343886462
-0.03013429383496578
-0.006295209755105559
-0.007858484545166532
-0.015756576753036017
0.010784383210991197
-0.010697335711229824
-0.01621730027157312
-0.00032522156111483867
-0.021520873454904877
-0.024310806153412502
-0.010971772305335543
-0.03703600647266339
-0.03718494824589564
-0.022829175298298865
-0.020435815037492956
-0.007817606592037075
-0.0033671004140986473
-0.004545738017139103
0.007857161724488686
0.018531261157803087
0.013002068299835579
0.02258146373189845
0.03248339169048345
0.01658598622378334
0.022565126586464895
0.02087421017789031
0.002925278830855918
0.004610455763436995
0.0019453953200163153
0.005967670511585172
0.014175403429338438
0.02736671302009535
0.036136855399544934
0.04397864864010263
0.06144746243694813
-0.009332205914203858
0.005121227149269535
0.03550508109058246
-0.010585426197375687
0.011286572965778802
0.03311058493752717
0.00047257658487849996
0.024305242982528175
0.0354118620642059
-0.01905070119697623
-0.00022832686739180893
-0.0009008632585269232
-0.02569524435271714
-0.005245124631072152
-0.025039021840506524
-0.035757278253193185
-0.017331266767140443
-0.03316384698826549
-0.053922314517866964
-0.046953909582607346
-0.04406175746040401
-0.021637279476260214
-0.029233901008813592
-0.020067636292390598
-0.022992328157891633
-0.0483168744955743
-0.03796629248471943
-0.02991041206939951
-0.044112601835380585
-0.02950628784623039
-0.054762731659824176
-0.05127392532317481
-0.03855609603829285
-0.06467254476351986
-0.044068635812813894
-0.016883588051594133
-0.04248505555666259
-0.019693698226768485
0.011774423727136002
-0.029104831861031997
-0.004645783321549162
0.011373699661579048
-0.016609872731636274
0.002550599470986726
0.004747739844482626
-0.01765796430898316
-0.003937285329551203
-0.0031333439393048026
-0.004007278199689675
-0.001766222347935796
0.0006463461909778428
0.00701387795933145
0.0041801355822403356
-0.004615112731549919
0.015294015965864891
0.009711063557002523
-0.0038757157012318435
0.02098126157710665
0.022626024077542287
0.012081252296254763
0.025450629858592526
0.040586319160926004
0.03195071974334117
0.03536987587032083
0.06181557326282992
0.056847616123979976
0.022867360512962013
0.03634522063952874
0.02895701918512768
0.022550857281413903
0.02794955121083899
0.02271567611862971
-0.00027754458575982786
-0.002480168645355377
-0.018220658633733886
-0.0013698955393621648
-0.01083784565667713
-0.02807940177935414
-0.0033150830922541994
-0.016908477323505474
-0.029517347820284204
0.0011640512533689906
-0.008036256151679463
-0.02315080863404867
0.015301477732133023
0.002791780325752926
-0.030941452351374157
0.03817394837767633
0.012047738356728701
-0.010496084181005335
0.04850060423099193
0.01538251703376406
0.010949984669009755
0.03902849446689177
0.0005170593409859088
0.0062286959053763965
0.012044367624185039
-0.02635697229015518
-0.01150096594172744
-0.0008924874134368242
-0.034937062015840875
-0.016677367583681352
-0.00374448911279436
-0.03583976541735047
-0.02392846951147712
0.0048775406481786025
-0.04244134051469474
-0.019511733625502493
-0.0002452692031340207
-0.048628380437753485
-0.013103690335394377
0.008732032423852981
-0.03383585609653601
-0.00341310776783098
0.025630776197387805
-0.01745103248119627
-0.0009807761928098077
0.031095544104246767
-0.008510168468527746
0.00336916536307344
0.012966839332917136
-0.02736672661283149
-0.019812954915096867
0.0491043681536195
0.03007536328684426
0.030907260278130653
0.05616491104583253
0.03331318708079441
0.03620891338556223
0.040107864070120514
0.011123307762810663
0.013112565784066717
0.016987850614128667
-0.007282591310463911
0.0022757443060371593
-0.009335603023980841
-0.015191551508240884
0.004839364857248013
-0.02702138675157612
-0.04172456213341995
-0.019629940114347075
-0.03141081260739601
-0.05954539987850089
-0.05438268815769765
-0.020614224993239005
-0.05219396624612948
-0.053551803973535955
-0.0217691234652741
-0.0403528407723442
-0.02056257611259178
-0.02600178885928308
-0.03484742344268034
0.00042083782844478583
-0.027457407043082662
-0.04314943206715711
-0.0051430626165329596
-0.021855984661471924
-0.03281083843989568
0.0012471910956306416
-0.01191243919857118
-0.02348025814081984
0.006685543308941884
-0.010118641067999293
-0.02452304018234852
0.004876405978620864
-0.025639765030695875
-0.03314767676751013
-0.005253176783233372
-0.039791207517360365
-0.04463783913733748
-0.023705826256535865
-0.030593359943702797
-0.024533331367686238
-0.020380636457968296
-0.01756841347489722
-0.014268762406788048
-0.0018314378569061185
0.011724105374405075
0.016412896447828222
0.028458298232989867
0.021818788024642783
0.0331713074473245
0.04011314730645509
-0.00879886284653932
0.00414508120165211
0.007161089101643619
-0.005242871203716634
-0.007534665528451018
-0.0004504395678269278
0.01277745795870507
0.014076901406537638
0.022656874071981588
-0.017993404102151146
-0.024077370261021865
-0.003175671321341084
-0.01719626000937485
-0.006829956936532381
0.008249238346923971
0.004320283340449469
0.026267455231761012
0.03714734945354148
-0.013665695679382053
0.011841183162272574
0.015796231179480473
-0.02105914286956762
0.0033841869403759576
-0.007975108015837746
-0.024592641651026585
-0.004548442029582785
-0.016535692460071486
-0.04278027207528389
-0.027616236907116502
-0.026548735148004404
-0.015043065553919271
-0.015954631022504082
-0.004900677242356567
-0.0008227557026169474
-0.021220435066146615
-0.005477128935894459
-0.027203385668113252
-0.03512106766357371
-0.02374880692012249
-0.050752302765399035
-0.04772714911846216
-0.034046910848075006
-0.049188297031575394
-0.030072598715404564
-0.004633042333871349
-0.03380284046760724
-0.011829271814037005
0.0145886750490798
-0.03016552017412655
-0.008644237034118112
0.008372953910703989
-0.02263106431508451
-0.00919538404271631
-0.00041855126297828105
-0.027451902173707434
-0.01454055167861793
-0.0027118302633397616
-0.015488837655485688
-0.0027221513860244827
0.015660817256896574
-0.006437586250596566
0.0045932093265157615
0.0070757799473480775
0.010422793237607766
0.020006589641029145
0.01463227360671412
0.029791183000331435
0.04069285928528992
0.04123314465538256
0.023308048944469056
0.043820226095537665
0.04362851053919958
0.05117508645661106
0.06392369350890147
0.056413764641073894
0.03412064128439151
0.04079093954280229
0.028528544350567005
0.023527193925731344
0.020802333760401782
0.00834736097249167
0.008958975238098353
0.0002431524184756299
-0.021676889912909725
-0.003453241824206087
-0.008622812640628617
-0.023679690467973594
-0.009175984288419073
-0.01909377329483276
-0.031885054871021584
0.006166340635942578
-0.001704082124674925
-0.019826229824791996
0.01680270428327154
-0.0005130875354358455
-0.02198192072386674
0.04138790974344697
0.007670585684801725
-0.010004132773579633
0.05537489039610369
0.017652756730757037
0.012315786381858698
0.04255949832642232
0.005748078541831815
0.01270527781099097
0.012601147387951659
-0.02009802843394652
0.0045863399511323075
0.006925076815794436
-0.022329648977872783
0.004325016503411296
0.010675388993991017
-0.0231404067042225
-0.0048298721372204995
0.005481846268263763
-0.04726568591645772
-0.02631981354036303
0.0027646027480035962
-0.05095374248912956
-0.018699643600999356
0.01962415893424457
-0.02435007766367939
-0.003579063875544938
0.023458998436220062
-0.025128144755935517
-0.01389713571583506
0.031690422424070455
-0.01496156822031634
-0.0066235602511819916
0.03358879841753385
-0.01803385947254253
-0.008075364347702068
0.048814527830688986
0.02744460112057815
0.02995393227780057
0.04749645364779239
0.027481415042513283
0.025319091465635123
0.020446346907308788
0.00039602170179764504
0.0037583594905489298
0.0015271327001301145
-0.014078144784636398
-0.006124446004082645
-0.008326824086657587
-0.015908024599481218
-0.0014930319429542367
-0.02876498595362201
-0.04308051392520263
-0.024368918284575956
-0.0278170200532207
-0.055126015951012075
-0.0449731458238616
-0.007362409491783859
-0.039845461361008604
-0.03488420001711127
-0.0005656586507167155
-0.02293226051046552
-0.005171906006856608
-0.010901144502778697
-0.022898802665361706
0.007606354674312524
-0.026498534570132206
-0.040280027132872674
0.001058842772231416
-0.021363723688461973
-0.029029952043638507
0.010191258125604745
0.005807131975952742
-0.010126720201644655
0.0195371954307429
0.005835942006852515
-0.006186004765237828
0.02271803799581688
-0.009207201744952535
-0.019348626536027595
0.0058945754957297775
-0.01965978026654798
-0.02864698259255823
-0.014913517423612849
-0.03744315174509277
-0.027901689876665605
-0.02353901625014329
-0.016946702248800658
-0.013878369064752486
-0.01150746594636556
0.003824394334234118
0.009211901619143942
0.009453761472293985
0.010507724859727124
0.028830987915144053
0.026932662462452482
-0.02582614420040042
-0.009811316311803295
-0.011217065220177843
-0.022297091683716325
-0.02480068180257691
-0.022065619105812714
-0.008697811179382448
-0.010901920164181608
-0.01072870826690506
-0.023922814292488898
-0.039703538887544285
-0.032140575633720934
-0.03146542135113711
-0.0427847273368669
-0.03558511137226918
-0.008810498661357377
-0.0037294623802465866
-0.003325747597894107
-0.008444541275707465
0.008100596226570922
0.004217046651938188
-0.031837034596485916
-0.004222756225329498
-0.006705047661451598
-0.03394984724991219
-0.01471336570297909
-0.01650752315848971
-0.03375438680598931
-0.016792886694462505
-0.02330215113825645
-0.011444232023033947
-0.010230624431658173
-0.014888879720754106
0.00022146108719119952
-0.014124140556560846
-0.01909479927029001
-0.026365704787008195
-0.03289910259313685
-0.03003920969723791
-0.026281485808782278
-0.02386901002896895
-0.015435366124793742
-0.014045432455204726
-0.0032741834935154034
0.013227883727352428
-0.032451682318321295
-0.01810819045913393
-0.0050172449882764395
-0.034498518303165006
-0.016090542853714213
-0.0053878120543336076
-0.029340432091803037
-0.02031488559675059
-0.009370551399017577
-0.032246395138741876
-0.018528539869052587
-0.008024535388680473
-0.03906013943392714
-0.011966894148622655
0.0017240391712118274
-0.03904368015155983
-0.0074916528347507404
-0.0007056074356845607
-0.00800563474822455
0.02241734717463431
0.01859651260497548
-0.001981082177258803
0.02652014574330289
0.022720946819217235
0.013655533340539044
0.0339725559792582
0.037019499793935956
0.03444364996468555
0.047132352897135334
0.046221896750244906
0.03601918490409341
0.039623365147186056
0.027877275613449538
0.020190378422163924
0.01800965125921415
0.00322315732447989
0.00010299840055660911
0.000736707419461394
-0.014626252706587583
-0.013198725858025222
-0.015969517283133988
-0.03137200419829521
0.010664401526763257
-0.0012117433207455936
-0.02594190002933585
0.014262836376230447
0.008633354483157928
-0.014423128282760782
0.01373008656783168
-0.00756155615700339
-0.007593273537452929
0.03388131122192664
0.002847567277178445
0.016075896697372766
0.03245961594244924
0.00794943035553609
0.02688432734756927
0.028060456348389277
-0.0006913695863415096
0.019626493961602577
0.017185416107963047
-0.01039296781097741
0.019785394166784646
0.025531333050253922
-0.0034002418401428086
0.027494188123443293
0.03410975856146986
-0.0014098429946509622
0.020604078413372022
0.020773667124482278
-0.026210859539957488
-0.004732106505327777
0.015490053529404186
-0.0372015707378702
-0.00841559251662198
0.026183494018807676
-0.014807753175005888
-0.0016121707752320051
0.031737489623669485
-0.010140235550058973
-0.003592151889265992
0.038326702605734925
-0.010856841480603783
-0.0005475462609570472
0.040818531928950734
-0.015754474965708566
-0.0077305717003493405
0.04203821133396166
0.017144734077566462
0.01798346714427917
0.038000527969386605
0.013511217888529417
0.010382322869756232
0.027338587459081014
0.005546794208997491
0.010218455946907548
0.005372536136736876
-0.008308963520356014
-0.00023989004211163943
-0.011523412018686946
-0.021568027003272542
-0.017590675297292985
-0.02977372924193397
-0.04490150524592086
-0.03654927936680316
-0.021512428935064335
-0.045804145848234064
-0.039832464154846536
-0.005352155239326595
-0.028926426933133544
-0.023554170794780532
0.009528692552016016
-0.006996526321884743
0.006029615228794722
0.0021882715234808323
-0.005214224139313869
0.011775274238897859
-0.029116993502138293
-0.03644985640218901
-0.0016379662439570174
-0.02322861267278138
-0.03012133983000996
-0.0001355012765896639
0.01007503929268361
-0.012422746853968655
0.004912216688597792
0.007260219978272764
-0.004869175441642916
0.010730733990237473
-0.016230996615144665
-0.024555667458773318
-0.010522646366155759
-0.028440756895941763
-0.025082665971092603
-0.014787561992260122
-0.044818036212018096
-0.02684271239052206
-0.01464428354959873
-0.017446149702155748
-0.008376977777955518
-0.006693389239448711
-0.004177956914588195
-0.00010560115502087577
-0.005702026814463029
-0.013920987556385434
0.0027133643596091534
0.0030277728920449463
-0.05132399261238688
-0.031314270670492944
-0.03658481874932565
-0.04549646816060122
-0.04171093516967687
-0.052109612009654825
-0.004135906949168244
-0.010195421173033741
-0.023436903615615387
0.004362568028013731
-0.010635198817827181
-0.014004576433824974
-0.013736908475590748
-0.01707539622687209
-0.01407957946763723
-0.01749581693396747
-0.00799419881747034
-0.010958177576473719
-0.010007183107932265
0.00161802161590365
-0.0071733546265794045
-0.012309269396596845
0.01152648827574278
-0.0024339231258156233
-0.02246111377335613
-0.006759275756783632
-0.018179238175135167
-0.008379965823657454
-0.000859927238149706
-0.01330891423170586
0.025285578847305257
0.013340101092376882
-0.009704679565285626
0.011415477861920749
-0.004964054242210123
-0.03388042818779092
-0.029474265950624162
-0.030565908112318033
-0.04762018128768765
-0.03212530957842215
-0.016450817272949995
-0.02246620438289344
-0.001589203573580824
0.015022706207058579
0.019093787234299605
-0.01782063182498513
0.0022497360030803684
0.005394624192914895
-0.0348479455858752
-0.019770321241960067
-0.01873227355749833
-0.049503618630695884
-0.03288732204600449
-0.02957664175784756
-0.055251069594533624
-0.024291625104576327
-0.011628769776061974
-0.042219107011543563
-0.0011732018967916568
0.004946739694457733
-0.03059928397791515
0.009703155926351452
0.002843447447209597
-0.008492179291651197
0.025307712357408554
0.013100419794992749
-0.006251502899898872
0.012759057410694082
0.0026972800727970516
0.013905836912134607
0.025326107865540144
0.01981405848092929
0.03239431906455393
0.039438539422957636
0.026925597728686117
0.04589828020232209
0.036293375348913436
0.015799259410972523
0.042624073963928095
0.029701308649809834
0.009406954194453462
0.02279527234036462
0.014807098836988315
-0.0023825619435703708
-0.006901988027856293
-0.008510876232463112
-0.030916308808019405
0.003490701022608833
0.008103276125859593
-0.01220787771473556
0.028503539672052953
0.027079623950912016
0.019086222944845584
0.03649983027090528
0.016282658753455838
0.02883124083039258
0.01586573102916904
-0.0029373795271470707
0.020296368278973128
0.010913037650513819
-0.0032071695727574003
0.024940670086580827
0.004544249694128645
-0.01268165328971334
0.01189390391856525
-0.00687938404578685
-0.02174711394482594
0.012153804263735205
0.008965878698282883
-0.010153950788164228
0.03558494742676073
0.024814697135496947
0.0007318251905294133
0.03909567630752417
0.021742911699069712
-0.01600313240971974
0.012198349242434507
0.014123909931486236
-0.023369449616632402
-0.0035820728679681873
0.005984369744460669
-0.02295795537618773
-0.010641137450588766
0.01299714666020086
-0.015131138947797336
-0.005290718440516605
0.02287391343368012
-0.01012657025136818
0.0036246317709894465
0.024643747390084677
-0.017521002095088504
-0.008073801193652403
0.038326285502311125
0.01020319042533083
0.0019845340368549883
0.03385605078485873
0.006970337409465529
-0.004583698933013344
0.015694906123665933
-0.0016779811948092228
0.0016743354105244789
-0.010043854131836788
-0.020422833425202395
-0.011897827799997965
-0.016720437297887074
-0.020031246385321708
-0.01802602137165104
-0.029965551057962617
-0.034706576506468564
-0.030413224752556374
-0.03358416732043105
-0.04997547736053897
-0.036657689432876076
-0.01366822561426142
-0.030789921703344297
-0.014025858809136616
0.000335744652283921
-0.011432875237461764
0.011135968823633621
-0.00710973935534442
-0.0003770726418454929
0.01882648159280043
-0.051055993556666186
-0.0404164013311435
-0.0071782475644217355
-0.0401854483137733
-0.044560046511720235
-0.01897294127694542
-0.0106360266288233
-0.030119246868411054
-0.021552621423582694
-0.004068268033988884
-0.02395054084548964
-0.008768551274670243
-0.02720534197449584
-0.03427742280888421
-0.018834242751890058
-0.0327434975632377
-0.02911509918607403
-0.016665178449563337
-0.0452171964323369
-0.03000825622556656
-0.01696101338015424
-0.03884409731659141
-0.026220525279207624
-0.020759905781917002
-0.028298443170043014
-0.013625290424923886
-0.01442556173392963
-0.022285171415490277
6.269119418724547e-06
-0.009496328922870818
-0.054851091040699684
-0.032032892750761474
-0.04937921778249808
-0.04800044049879982
-0.04551709910018258
-0.0657562914545923
0.003253669674116006
-0.0009426946140033305
-0.021907819952618045
0.008507606891580678
0.012029771017711117
-0.005862663578551794
-0.01950192252542578
0.002251216632849525
-0.008759204583515314
-0.03649635133623603
-0.01564371819795447
-0.020800914938806737
-0.00777513729255297
-0.0015194985238290919
-0.00875308343934042
0.007768858299035883
0.018003858882767138
0.0047616822395278955
-0.000532241154171181
-5.884844340595046e-05
-0.014766512070809522
0.02065926006553573
0.01237991178051635
-0.004853584462570417
0.051069483428816224
0.03670792240213569
0.010381132513217215
0.022985013204258404
0.011487954905356371
-0.01598737867738583
-0.018162474749030585
-0.007867785005056017
-0.031055190525071188
0.000342839959203765
0.026199880019644423
0.013044929202441565
0.02029184211536879
0.04574936473179346
0.03406574965899836
-0.007767698993452211
0.01829880840869569
0.015472018698226647
-0.01053881489085931
0.006656850239647678
0.003228796045379013
-0.03848312746046241
-0.020380196020029977
-0.01776254603908246
-0.04066691266349096
-0.008827817839943327
-0.0031374393724053805
-0.008653498859455887
0.02052962489989825
0.01507244510597834
-0.0029498813914141334
0.018274655037107426
0.007308972885153082
-0.008777463656387373
0.020106484223977813
0.003683015932597588
-0.007992619502740585
0.00867977084292778
-0.00510755148666523
0.016323475214101397
0.01565916864134674
0.0037006786136724867
0.023005071476319083
0.021134217895757434
0.006799054602247341
0.036385553335119065
0.024787610838088486
0.010224190439003
0.036719425961546925
0.02302332109657369
0.004485819307392039
0.03001939202647902
0.01794544305482302
0.004032412152837077
-0.01291376693809759
-0.013915746649522408
-0.037527330404531004
-0.009716964552677903
-0.005134239396564954
-0.022055391633054762
0.02361156570384943
0.0038483727902967925
0.0013845015251244843
0.03043574106146192
0.010677933286123015
0.020720246094681313
0.007670481677515063
-0.009077977983424808
0.011500949234624023
-0.005620888368974961
-0.01638110643106305
0.014723307614206359
-0.014344496531241643
-0.023831809783215537
0.009116264522938292
-0.029299535848967776
-0.03405348061466265
0.0011582132333894924
-0.01606796227671769
-0.02868481722427685
0.011759312215219643
0.014602732718673106
-0.001190247093266803
0.026969355588278267
0.011099092690298865
-0.010423132880057183
0.012524443636109873
0.013635972508759175
-0.010576663254241721
0.011447572628231425
-0.0030813453450039127
-0.02625077868016969
-0.007612745548634869
-0.01443633502035354
-0.039019620080963616
-0.018332639261917215
-0.0003731485526398737
-0.021477868779164543
0.0006999131009960046
0.006594232895799874
-0.013380248614548201
0.006497733851512945
0.03305730380589157
0.015651455629873252
0.011270404645182464
0.02057292518993594
0.002669420281039253
-0.002305531805691577
-0.0036910004039813955
-0.010463482307813313
-0.005480913606627937
-0.02717737443457759
-0.029271701518883052
-0.022191895667205502
-0.0195239584023139
-0.013590798726564596
-0.0086174762938519
-0.018985543459101226
-0.011122494959700198
-0.007985416974370755
-0.03135160867708714
-0.035470863539646104
-0.023510390384859164
-0.01856452336772622
-0.03091897358376794
-0.009500436742843331
0.006344884423644832
-0.003005197561259132
0.016275351860699675
0.006505553783894381
0.010850353302586059
0.028503761552711858
-0.01789353075917737
-0.01828726896923448
0.009859738624678822
-0.03670751711430571
-0.04323979988390899
-0.01610040016635404
-0.022809173936492507
-0.031944148006164165
-0.022456186490602516
-0.00646232364068964
-0.022500592309779723
-0.012365892016171404
-0.023309075574059007
-0.041510516249274675
-0.02496274655418066
-0.01605077271294148
-0.018965798774082172
-0.012116818415677568
-0.029558823239514694
-0.024974126051188515
-0.016625218224695267
-0.026949441262589538
-0.022364185559565188
-0.019175583138003837
-0.018090740001074582
-0.003929879959736266
-0.01033666680195703
-0.013746940695690971
0.0025471750853876033
-0.011512274212975798
-0.04291539922293004
-0.03190377785508836
-0.0620807374852332
-0.034692862548662724
-0.03988236696025425
-0.06527885224974388
0.002417902137864724
-0.005439445798753458
-0.03049138028176465
-0.008380165231386103
-0.005319623271128575
-0.02885354401747773
-0.01706186165642411
0.005489805830207606
-0.013638503350356403
-0.02028689238642174
-0.004045848816340519
-0.01262168690539444
0.010678781135783771
0.0062956067530789426
-0.007515988216886176
0.028592620209123107
0.028064904708087552
0.016608427996176733
0.021051566728729296
0.02290376630283208
0.012121471012918808
0.023626615192956855
0.029144707960676437
0.010057826903730924
0.022520303536832348
0.03028808773633418
0.02226243533272746
-0.002620242375521522
0.012019400269091101
0.00258438135709052
0.003290379972190382
0.03316482580835724
0.013522177805799382
0.016622006838086678
0.05981802269465435
0.0429339985275339
0.00803992445596057
0.036999478232387716
0.026569593237809754
-0.007733747714946994
0.016437175326846548
0.013053861728928074
-0.005115405944089201
0.00941858082209417
0.0030791934458079366
-0.0007850906327842006
0.008750766697760303
0.0010348180623044956
0.0005817136901070317
0.014446652204770465
0.007542936563971541
0.007904457606814538
0.02203667006223436
0.02230696257540634
0.004211509339354972
0.020333501294574317
0.011457025845869776
0.017925950585045865
0.02902416494381014
0.013131394837226591
0.02625618836800361
0.038748645732345946
0.0141802957426405
0.03773968283289294
0.04933659940125877
0.03250255562199047
0.03355444613903594
0.037552670662688456
0.028509196079097406
0.04361045259496409
0.04756714921709171
0.04110135505143558
0.03419643601330852
0.02757731731998348
0.022545990179034095
0.033757530227512975
0.02218540906798595
0.019218185418038384
0.017719544242556333
0.013579458526186807
0.006022367297277724
0.02178677030959084
0.02957659615612261
0.018578910023993526
0.0270308119938742
0.015191573168041934
0.012423236057004853
0.024804414755246744
0.012506632743236544
0.01971385706687931
0.015041977851699183
0.005959236760014863
0.022000396205914
0.008910685448540212
-0.0017415605470569775
0.02701296338839206
0.005559070148920244
-0.00963481862068679
0.021796024672344778
-0.005981607051019387
-0.019513123968787596
0.009459833545313157
-0.0020970419655464497
-0.01986727365744697
0.007353483514828721
0.014689165372467984
-0.004697019337059296
0.010357006799726117
0.006219914190668321
-0.010201633530267004
0.006164710431808044
0.01073994424540385
-0.010453473450652732
0.01450275946163475
-0.011397137151639578
-0.03668877313156641
-0.011314888781885309
-0.011060927341962477
-0.04285268151860623
-0.014537917908864832
0.0009191222288820771
-0.023683025787003445
0.006413401569423898
0.010001843711266169
-0.010625169861345188
0.020299115442108506
0.04322970956067871
0.03707252574831854
0.04153944924330998
0.026623505343646315
0.02182982245403746
0.02269597738162516
0.005918705978024825
0.002211381574787584
0.008640063482674246
-0.007032371463413231
-0.007641425525433851
-0.0010889281629628835
-0.012325907713970862
-0.0027402085529628557
0.001070670367583494
-0.010815642467819169
-0.002435616811703714
0.0018947826852588091
-0.02602749138105572
-0.0259292536998805
-0.023728401750290527
-0.013067407779959277
-0.028028267417650864
-0.017698642007040497
0.004979806199998257
-0.0024145111670105398
0.00843713483450252
0.007191738645194678
0.0065365708015624555
0.02261494748624494
0.00043616392650253647
-0.0023970598261339195
0.008623790412675176
-0.009021792204365981
-0.017144278423264037
-0.007439167442772376
-0.011120482068880194
-0.01960891710788653
-0.015526169022579205
0.0069612967538893915
-0.003831423911567387
-0.00297313394401918
-0.003359676482899972
-0.01305362067973922
-0.01254228468673374
-0.005372575221556391
-0.0065628373478639375
-0.012569556682199405
-0.01507106680743018
-0.0024927525121096394
-0.005509293970641102
-0.006137029689568443
0.004804023884908985
-0.006320502348395717
0.006947786524141028
0.011744741633985513
-0.005193884014433502
0.0016275610559597098
0.006133148194286159
-0.008241568311956554
-0.028159961135712702
-0.02327472321613667
